{"options":{"Layers":[784,200,10],"TrainingMethod":"BackPropagate","ActivationFunction":"ElliotSymmetrical","ErrorFunction":"CrossEntropy","BatchSize":1,"log":true,"TrainingSize":50000,"epochs":300,"errorThresh":null,"logPeriod":10,"learningRate":0.5,"momentum":0.1,"batchSize":1},"weights":[null,[[0.033368729054927826,0.033042773604393005,0.01096777431666851,-0.04171307757496834,0.013787979260087013,0.04262404143810272,0.03905586153268814,0.02573372609913349,0.029416760429739952,0.029305608943104744,0.03951466456055641,0.010670015588402748,-0.0027149778325110674,0.036757491528987885,-0.027424423024058342,0.007435139734297991,0.008646880276501179,-0.022195616737008095,-0.07302190363407135,-0.035789020359516144,0.0050234198570251465,-0.0582403764128685,-0.011798270978033543,0.021859541535377502,-0.060275256633758545,-0.003293468616902828,0.0027078427374362946,0.010211465880274773,-0.033196646720170975,0.045381098985672,0.0452728271484375,0.00347019056789577,0.006184680387377739,0.02907748706638813,-0.02061099000275135,-0.024345021694898605,0.0865715965628624,0.00138174369931221,0.02665841393172741,0.0037654442712664604,0.03441334888339043,-0.020324859768152237,0.05614400655031204,-0.012964642606675625,0.019082441926002502,-0.00730865029618144,0.022200169041752815,-0.00663710804656148,0.037406932562589645,-0.04607761278748512,-0.007195829879492521,0.051261384040117264,0.004025873262435198,-0.0165722519159317,-0.015195214189589024,-0.030531616881489754,-0.05173497274518013,0.026993611827492714,-0.02601669728755951,-0.09020980447530746,0.02318033017218113,-0.056813765317201614,-0.05225800722837448,0.06577106565237045,0.038346923887729645,0.04593173414468765,0.05059199780225754,-0.01238207332789898,0.01426898967474699,0.0903049036860466,-0.0008211901294998825,0.08903449028730392,0.015135888010263443,0.0342976376414299,0.003166800830513239,-0.06727129966020584,0.037360452115535736,-0.0435788556933403,-0.0025379774160683155,0.011926770210266113,0.046825382858514786,0.03337216377258301,-0.00245877169072628,-0.04633130133152008,0.00583411892876029,0.019857732579112053,-0.01419034507125616,0.030509842559695244,-0.02778255194425583,-0.02391502819955349,-0.02518228255212307,0.0030032009817659855,0.017048802226781845,-0.03957697004079819,0.07440276443958282,0.029304174706339836,-0.05300421267747879,-0.006372713018208742,0.02508789487183094,-0.06158924475312233,-0.01928386278450489,0.018889788538217545,0.019566845148801804,-0.0475924052298069,-0.0066980174742639065,-0.020070742815732956,0.054994355887174606,-0.02339213714003563,0.07173755764961243,-0.0324702225625515,0.008675635792315006,-0.007573823444545269,0.027400394901633263,0.008142868988215923,-0.038620542734861374,-0.027106981724500656,-0.03397835046052933,-0.01700517348945141,0.04144725203514099,0.018358459696173668,0.03198646008968353,-0.08456160873174667,-0.019605612382292747,-0.06041060760617256,-0.0168497022241354,-0.03771787881851196,-0.041676852852106094,0.014965374954044819,-0.067032590508461,0.034561481326818466,0.0410509929060936,-0.0356295146048069,0.0260494202375412,-0.044813718646764755,-0.04549628123641014,0.031907837837934494,0.05046597868204117,-0.020083602517843246,0.010302458889782429,0.033889129757881165,-0.026526322588324547,-0.035170622169971466,-0.04214075207710266,0.05546799302101135,-0.07385915517807007,0.01473078690469265,-0.028778094798326492,0.04684845358133316,0.028613347560167313,0.031214067712426186,0.05011865869164467,-0.00831819511950016,0.004842620342969894,0.010988439433276653,-0.03197919949889183,-0.016485905274748802,-0.05923260375857353,-0.016787515953183174,0.002763987984508276,0.025522062554955482,-0.03432812541723251,-0.019337188452482224,0.04667207971215248,0.03977654129266739,0.02208118326961994,-0.010829468257725239,0.03708456829190254,-0.008278614841401577,0.03497985377907753,-0.025912238284945488,0.0018766210414469242,0.01966247335076332,0.03607217222452164,0.07505984604358673,0.004409250803291798,0.02035318873822689,-0.08301148563623428,0.04424013942480087,-0.05373215302824974,0.04821033403277397,0.021975820884108543,0.01939396746456623,0.04105482995510101,0.0023260265588760376,-0.052323274314403534,-0.02964874543249607,0.04573316499590874,0.05477673560380936,-0.027664951980113983,-0.04432760924100876,0.04857703298330307,-0.01918630115687847,-0.014979565516114235,-0.025902295485138893,0.05116733908653259,0.025750230997800827,0.04360112547874451,0.008793884888291359,0.05476197600364685,0.03236326202750206,-0.03746597841382027,0.0035068155266344547,-0.005165274254977703,0.011953508481383324,0.034767527133226395,0.020050112158060074,0.02885887213051319,0.08423875272274017,-0.03531810641288757,0.04649453982710838,0.07484009861946106,0.04418477043509483,0.04350493848323822,-0.03575249761343002,-0.014523728750646114,0.021386755630373955,-0.02031766250729561,-0.023067014291882515,-0.05948775261640549,-0.003254595911130309,0.021220514550805092,-0.021475473418831825,0.047354355454444885,0.03096356801688671,-0.011329665780067444,0.0021976192947477102,0.00011605895997490734,-0.0030498511623591185,0.011795667000114918,0.008122612722218037,-0.008185869082808495,0.0031818202696740627,0.02904467284679413,-0.03395475074648857,-0.011388235725462437,0.0018647287506610155,0.010390782728791237,-0.005502351094037294,0.07604324072599411,-0.0416717566549778,-0.012112214230000973,0.05187715217471123,-0.0011387196136638522,-0.02945578657090664,-0.052188750356435776,0.012256831862032413,0.013916692696511745,-0.03780718520283699,0.03366605564951897,-0.018389645963907242,-0.019307775422930717,-0.026211747899651527,-0.006050184369087219,-0.06825867295265198,0.012609212659299374,0.0342186875641346,0.04384033754467964,-0.009443766437470913,-0.04461915045976639,0.014325848780572414,-0.005089527927339077,-0.043333716690540314,0.026060933247208595,-0.012539341114461422,0.013774897903203964,0.037989865988492966,-0.007632931228727102,0.03657165542244911,-0.007103933021426201,0.03484699875116348,-0.019512398168444633,0.0013964370591565967,0.003811025293543935,0.004622282925993204,-0.040890883654356,-0.08024027943611145,-0.0462629608809948,0.001011975109577179,0.00016749043425079435,0.0102665601298213,-0.009526495821774006,-0.005976452492177486,-0.016459228470921516,0.03082398511469364,-0.05303914099931717,0.0192303154617548,0.013531800359487534,-0.03009793348610401,0.015828995034098625,0.02475321665406227,0.0006273138569667935,0.003438678802922368,-0.006971318274736404,0.020799700170755386,0.0016639480600133538,0.06768158078193665,-0.014170683920383453,-0.04086298495531082,0.06447924673557281,0.05301336199045181,0.015113464556634426,-0.012514631263911724,-0.04057670384645462,0.017589932307600975,-0.03327130898833275,0.01685522496700287,-0.00013626524014398456,0.02872944436967373,0.01573060266673565,-0.030570650473237038,0.019064132124185562,-0.005910102277994156,-0.01759357936680317,0.003384356154128909,-0.025892600417137146,-0.018842311576008797,0.022419705986976624,0.07560311257839203,-0.023678507655858994,-0.00428568571805954,-0.007812226191163063,-0.009263352490961552,-0.01065131276845932,-0.01978355459868908,0.06673065572977066,0.05378737300634384,-0.016613874584436417,0.07035965472459793,0.03137202188372612,-0.0326751247048378,-0.02786763571202755,0.0237025897949934,-0.06085306778550148,0.02536843903362751,-0.021328406408429146,-0.02353399060666561,0.02385171689093113,0.01743067428469658,-0.055999524891376495,0.015070481225848198,0.04643969610333443,-0.01694701425731182,-0.0576695054769516,-0.007599239237606525,0.014666411094367504,-0.004593134392052889,0.04375668987631798,-0.0230488870292902,0.022991985082626343,0.05644805729389191,-0.06926190108060837,0.023396557196974754,0.0059277997352182865,0.025421500205993652,0.06478587538003922,0.08411142230033875,0.03847014904022217,0.0048590232618153095,0.04552718997001648,-0.000989557127468288,-0.016634663566946983,0.015957558527588844,-0.03478912264108658,0.0002378125354880467,-0.011590645648539066,0.047640103846788406,0.03144395351409912,-0.01706789620220661,-0.022563260048627853,0.01329678762704134,0.06911174207925797,0.011096169240772724,0.0124457236379385,0.010549888014793396,0.05603660270571709,-0.021022101864218712,-0.03490450978279114,0.014252729713916779,0.005044225137680769,0.019340356811881065,0.06625901162624359,0.0020621016155928373,-0.005472902674227953,0.05426667258143425,-0.02038956992328167,0.037464022636413574,0.0298929326236248,0.05042652040719986,-0.01525196898728609,-0.0326627753674984,-0.016225313767790794,0.02591000869870186,-0.06272882968187332,-0.018031293526291847,-0.07636503130197525,0.0547519326210022,0.0068686106242239475,0.02616768702864647,0.02735704369843006,0.054098933935165405,-0.010882719419896603,-0.07873603701591492,-0.006755932234227657,-0.04384668543934822,0.02089105360209942,0.016896381974220276,0.022337574511766434,0.04993324726819992,0.019408950582146645,0.054367657750844955,0.022972946986556053,0.030171917751431465,0.04379136115312576,0.02656988985836506,-0.017434418201446533,0.0074002789333462715,-0.06600604206323624,-0.04884609580039978,-0.0338931530714035,0.008095634169876575,-0.030687527731060982,0.05814775824546814,-0.025562619790434837,-0.01579130068421364,0.025330407544970512,0.01096236240118742,-0.03326771780848503,0.0544307641685009,-0.00676328968256712,-0.040006957948207855,0.016291746869683266,-0.03704337403178215,-0.0013271502684801817,-0.02118244394659996,0.009824039414525032,0.05262680724263191,0.07846041023731232,0.023036165162920952,0.01576063595712185,0.04992692917585373,0.05826196447014809,-0.04308987036347389,0.05517731234431267,-0.07273517549037933,0.005044564604759216,0.0275566466152668,0.04083339124917984,0.03390466794371605,0.008240037597715855,-0.020752040669322014,-0.03345566987991333,0.06741764396429062,0.01952485181391239,0.06018981337547302,-0.024877630174160004,-0.00920017622411251,-0.0045394585467875,0.019202981144189835,-0.03225630521774292,-0.003228894667699933,-0.07280018925666809,-0.05111783370375633,-0.01532877516001463,0.005715643521398306,0.06989282369613647,0.020437631756067276,0.015043364837765694,0.03136435151100159,-0.0039572445675730705,-0.006089873146265745,0.06754987686872482,0.010609541088342667,-0.03164093568921089,0.010364359244704247,0.027557523921132088,0.01457269862294197,-0.03859153762459755,-0.050326909869909286,-0.005112290382385254,0.02837235853075981,-0.007456241175532341,-0.01836731843650341,0.010177399963140488,0.02110559679567814,-0.06693356484174728,-0.03133147209882736,-0.01766260527074337,-0.05140791833400726,0.04258166253566742,-0.049303121864795685,0.01850155182182789,-0.0021442007273435593,0.060488954186439514,0.09021767973899841,0.01303129643201828,0.04259169101715088,-0.023183245211839676,-0.002157894428819418,-0.012250373139977455,0.047008100897073746,0.03516993671655655,-0.03405119851231575,0.017365332692861557,-0.01873169280588627,0.0025270136538892984,-0.07268820703029633,0.04302322119474411,-0.026873286813497543,-0.023973586037755013,-0.04137342795729637,0.0337204672396183,0.03236599639058113,0.015766967087984085,0.01920066960155964,0.015708856284618378,-0.006822275463491678,0.02032056823372841,-0.01651260256767273,0.03778107091784477,-0.03879302740097046,-0.02656554989516735,0.01669398322701454,0.050784774124622345,0.043173618614673615,-0.018871046602725983,-0.017370369285345078,-0.0024409971665591,-0.011054860427975655,-0.08144062012434006,-0.03346220403909683,0.0000893290271051228,-0.03735070675611496,0.02876945212483406,-0.01776997372508049,0.007461492903530598,0.01068042777478695,-0.024237221106886864,0.02521648071706295,0.029645299538969994,-0.006465569604188204,-0.022671572864055634,0.015489820390939713,-0.02547750622034073,0.03410511836409569,-0.02013532817363739,-0.056768473237752914,0.03172043338418007,0.0698203444480896,0.028456751257181168,-0.07479076087474823,-0.014139383099973202,0.02237207069993019,-0.01723482459783554,-0.01898028515279293,-0.030957775190472603,-0.008766604587435722,-0.013762468472123146,-0.02770647220313549,0.06476680189371109,0.016805322840809822,0.029130391776561737,0.011827940121293068,-0.009465302340686321,-0.002191185252740979,-0.02108198031783104,-0.02014658786356449,-0.04232543334364891,-0.042806029319763184,-0.017366133630275726,-0.010664870031177998,0.00014733489661011845,-0.04342799633741379,-0.07166295498609543,0.009126034565269947,-0.04648635536432266,-0.009495493955910206,0.06945183873176575,-0.03169075772166252,-0.0024679559282958508,0.06891712546348572,0.022799251601099968,0.038737185299396515,-0.001689745346084237,-0.009557203389704227,-0.00040766882011666894,-0.02428622916340828,0.021890481933951378,0.044014010578393936,0.020503893494606018,0.04718562215566635,0.0436297245323658,-0.08085396140813828,0.003961832262575626,-0.006410813890397549,0.011694604530930519,0.06243589520454407,-0.010824511758983135,0.06050758808851242,-0.0240207277238369,-0.07700154185295105,-0.07137501984834671,0.013405829668045044,0.03875915706157684,-0.0023246011696755886,-0.0073609803803265095,0.032224807888269424,0.04150204360485077,0.011584447696805,0.00027695289463736117,0.04626661166548729,-0.009746082127094269,-0.07102009654045105,0.005974270403385162,0.019682444632053375,0.013009097427129745,0.0011758334003388882,0.012217008508741856,0.02935156226158142,-0.0018367163138464093,0.03691050782799721,0.015621124766767025,0.046186454594135284,0.0281401164829731,-0.00941178947687149,-0.03506927564740181,-0.036914046853780746,-0.01605616696178913,0.019385868683457375,0.02671765349805355,-0.061682380735874176,-0.012368704192340374,-0.015376366674900055,-0.018382202833890915,-0.00593401538208127,0.0122598921880126,-0.0296830702573061,0.027038108557462692,0.0464460514485836,-0.01156964898109436,0.017553014680743217,0.01703552156686783,-0.027147553861141205,-0.05303264781832695,0.052484385669231415,0.0359717421233654,0.04621889069676399,-0.00884859636425972,-0.042156487703323364,-0.019778791815042496,-0.011900609359145164,-0.055480994284152985,-0.020909976214170456,0.008668470196425915,0.024616871029138565,-0.0017956920200958848,-0.03766294941306114,-0.008627236820757389,0.0133771738037467,-0.0034255029167979956,0.036265984177589417,0.010041392408311367,0.02398306503891945,-0.022028516978025436,-0.002913127187639475,-0.029000787064433098,0.0018258647760376334,0.08600932359695435,-0.007955783046782017,-0.02326917089521885,0.028187982738018036,0.06747116893529892,-0.051890917122364044,0.03734125941991806,-0.03506065905094147,-0.025963852182030678,0.012075663544237614,-0.017523489892482758,-0.018786082044243813,-0.05984669178724289,0.03752804175019264,-0.008962703868746758,0.08599986135959625,0.006459122523665428,0.03896366059780121,0.015060940757393837,-0.026161404326558113,-0.09035955369472504,0.03123164363205433,0.01165227871388197,0.01591273956000805,-0.006397819612175226,-0.013330102898180485,0.056696660816669464,-0.00007021905912552029,-0.032561805099248886,-0.018859293311834335,0.0011035436764359474,-0.015296031720936298,-0.03381520137190819,-0.01853303425014019,-0.07214169949293137,0.03992694988846779,0.05322851240634918,0.05559052899479866,0.03981519863009453,0.04535426199436188,-0.03031829372048378,0.010244191624224186,0.08429230749607086,-0.024999454617500305,-0.008432907983660698,-0.002416214905679226,0.04961008578538895,-0.003830116707831621,0.048141684383153915,-0.017210980877280235,-0.0439731739461422,-0.005720847751945257,-0.061293113976716995,-0.02766837179660797,0.005402456037700176,-0.03263380005955696,-0.06494137644767761,0.027810566127300262,-0.015295242890715599,0.03283541277050972,-0.01342176552861929,0.04278188943862915,-0.07297199219465256,0.03229237347841263,-0.008594680577516556,-0.0027579735033214092,0.05982004478573799,0.04595009610056877,-0.062050312757492065,0.026031209155917168,-0.04446824640035629,-0.02831367217004299,0.009729774668812752,0.05277944728732109,0.006018622312694788,-0.01940637081861496,-0.03171476349234581,0.010724645107984543,0.0174392256885767,-0.013512314297258854,0.057932525873184204,0.024807317182421684,-0.05000784620642662,0.03887332230806351,0.022151006385684013,0.06013316288590431,0.009191838093101978,0.05484122037887573,-0.005886018741875887,0.023186853155493736,-0.03495120629668236,0.007689980790019035,0.009634743444621563,-0.006941001862287521,0.035668496042490005,0.0032111136242747307,-0.07333341985940933,0.010449690744280815,-0.025094127282500267,0.08094622194766998,0.03979136794805527,-0.014095175080001354,-0.03481723740696907,0.05856155976653099,0.024102451279759407,-0.015800785273313522,-0.0015046859625726938,-0.023694796487689018,-0.05256131663918495,-0.0010825191857293248,0.011110823601484299,-0.010872500948607922,-0.04609844833612442,0.04874803498387337,-0.024730512872338295,-0.019143182784318924,-0.025397881865501404,-0.040134940296411514],[-0.004502519965171814,-0.04468149319291115,-0.04157738760113716,-0.05729922279715538,-0.02785544842481613,-0.08053148537874222,0.04499823972582817,0.03163985535502434,-0.009561236016452312,0.0023590209893882275,0.030201276764273643,0.001248369924724102,0.03241493180394173,-0.022103382274508476,-0.04202205315232277,0.08501633256673813,0.005502208601683378,-0.06362266838550568,0.024183208122849464,-0.003927512560039759,-0.05057722330093384,0.055141568183898926,-0.05471358075737953,0.03461260348558426,0.00009126154327532277,0.015150326304137707,0.0033313981257379055,0.027793608605861664,0.029393423348665237,0.012610075995326042,-0.01624157465994358,0.06322086602449417,-0.03161703050136566,-0.047452475875616074,-0.011937888339161873,0.0066200788132846355,0.05031021684408188,0.02022734098136425,0.001827098079957068,0.03597800433635712,-0.07543997466564178,-0.011640304699540138,-0.029077760875225067,0.029069798067212105,-0.03133481740951538,-0.0022115481551736593,0.025372132658958435,-0.009937156923115253,-0.04367227107286453,0.00926127564162016,0.04444872960448265,-0.05902179330587387,-0.017647668719291687,-0.05858317017555237,0.018268195912241936,0.008015885949134827,-0.04415459558367729,0.015366255305707455,0.043591082096099854,0.02119291014969349,0.015011058188974857,0.051523607224226,0.009436889551579952,0.0459216870367527,-0.02477831020951271,-0.005005746614187956,-0.023446548730134964,-0.03459123522043228,-0.048406217247247696,-0.05696897581219673,0.0013521079672500491,0.020506680011749268,-0.005455718841403723,-0.03440519794821739,0.04098829627037048,-0.03148087114095688,-0.029979802668094635,0.049868229776620865,0.03501147776842117,-0.022164970636367798,0.008456576615571976,0.0880400761961937,-0.08536472171545029,0.018106190487742424,0.06798210740089417,0.047699879854917526,0.022219479084014893,0.04000335559248924,-0.012872692197561264,0.039091601967811584,0.042497310787439346,-0.0395096056163311,0.05844792351126671,-0.021600374951958656,-0.008455989882349968,0.0007330204243771732,-0.04075435921549797,0.024716265499591827,-0.04799271374940872,-0.018891409039497375,-0.02435874193906784,-0.010858748108148575,-0.036617349833250046,-0.0292417760938406,-0.02254038117825985,-0.003910417668521404,0.03163998946547508,0.014654891565442085,0.012003579176962376,-0.06034183129668236,-0.07802161574363708,-0.03005138225853443,-0.03425648808479309,0.004504670854657888,-0.06067381054162979,-0.04973852261900902,-0.026548583060503006,0.02763202227652073,0.002800692105665803,0.030776379629969597,-0.0011695472057908773,0.005520399194210768,0.0038758281152695417,-0.014187873341143131,-0.017454640939831734,0.05097005143761635,-0.038916390389204025,-0.010713702999055386,0.008004894480109215,-0.009953419677913189,-0.005711006931960583,0.03359915688633919,-0.05598665401339531,0.058653440326452255,0.020625116303563118,0.001878225477412343,0.015559244900941849,-0.0322977639734745,-0.024184290319681168,-0.03547889366745949,-0.07346993684768677,-0.03664298355579376,0.0016248661559075117,0.018654715269804,-0.00039090015343390405,-0.030068250373005867,-0.006839210167527199,0.008465797640383244,-0.020651284605264664,0.029329722747206688,0.03293203189969063,-0.0006902834284119308,0.0602276511490345,0.052201349288225174,0.021352510899305344,-0.010179778560996056,-0.009667403995990753,-0.02368900366127491,-0.006158091127872467,0.043340619653463364,0.030878806486725807,0.06836278736591339,0.011412248946726322,0.06506958603858948,0.026658158749341965,0.036919139325618744,0.021689385175704956,-0.03782905638217926,-0.011417816393077374,-0.01601998880505562,-0.02511199377477169,-0.041103847324848175,-0.011622854508459568,-0.0250887218862772,0.02516038715839386,-0.03335069864988327,0.0005792477750219405,-0.04012637957930565,0.01747218519449234,0.018728038296103477,-0.0006220564246177673,-0.01668648049235344,0.0040697674266994,0.05994293838739395,-0.055063456296920776,-0.016513153910636902,0.015339642763137817,0.024457143619656563,0.07355694472789764,-0.0507219173014164,-0.003742933738976717,-0.006478946190327406,-0.05591486021876335,0.006473707966506481,-0.010788979008793831,0.004085196647793055,0.008931922726333141,0.019081436097621918,-0.02571265771985054,-0.03269816190004349,-0.017922569066286087,0.03690812364220619,-0.011471773497760296,-0.018618501722812653,-0.041736457496881485,0.016850441694259644,0.016666453331708908,0.032708823680877686,-0.055766817182302475,-0.01546553149819374,0.02300916612148285,0.02080870047211647,0.02935117296874523,0.027163123711943626,0.07367363572120667,0.05810438096523285,-0.04316265508532524,0.047685593366622925,0.060072626918554306,-0.023392891511321068,0.017440035939216614,-0.03776814416050911,0.03581547737121582,-0.02317822352051735,0.04380980506539345,0.03218353912234306,0.05652103200554848,0.023203246295452118,0.05985969305038452,0.02277676947414875,0.02545003592967987,-0.02001800574362278,0.0006369583425112069,-0.0519787073135376,0.07588061690330505,0.008980887942016125,0.03158091753721237,-0.009624172933399677,-0.01893780753016472,0.042065855115652084,-0.03372935950756073,-0.020794685930013657,0.02298745885491371,-0.032085660845041275,0.07678713649511337,0.008258441463112831,0.03969067335128784,-0.011729850433766842,-0.0516820102930069,-0.022094953805208206,-0.03060624748468399,-0.03741288185119629,-0.04447520896792412,0.05074150860309601,0.05794693902134895,0.04228558763861656,0.03037821687757969,-0.031551916152238846,-0.019863566383719444,-0.024154264479875565,0.00007332749373745173,-0.07939066737890244,0.038206011056900024,0.005817427299916744,0.05790507048368454,0.04282815754413605,0.029298504814505577,0.012349412776529789,-0.00734309246763587,-0.0542621873319149,-0.05015413463115692,0.034693602472543716,0.006478317081928253,0.00014793197624385357,0.0344109833240509,0.007568528410047293,0.02285209856927395,0.05255512893199921,-0.02130276896059513,0.07206035405397415,0.05047091096639633,0.04719964414834976,0.05349908024072647,0.003996789921075106,0.04546725004911423,-0.03893129900097847,0.015891555696725845,0.03605899587273598,0.016616100445389748,0.0206521674990654,-0.05029726400971413,0.03996562212705612,-0.03597581759095192,-0.0038791510742157698,-0.004162211902439594,0.04270881786942482,0.013695590198040009,0.005429293029010296,-0.03738570213317871,0.025431258603930473,0.05704280361533165,-0.04179495573043823,0.03207574039697647,0.01846480555832386,-0.0712415874004364,-0.02166772447526455,-0.02154231071472168,0.04985417053103447,-0.0066629196517169476,0.017264030873775482,0.03712264075875282,-0.045255307108163834,0.03168089687824249,0.009014200419187546,-0.024370569735765457,-0.059670355170965195,0.026652246713638306,0.003526074346154928,0.05679376423358917,0.012046441435813904,-0.00037060503382235765,0.04071054980158806,-0.03197179362177849,0.0030468199402093887,-0.03553050011396408,-0.051968831568956375,0.04866829141974449,0.036344047635793686,0.034184399992227554,0.018732018768787384,-0.0030728515703231096,0.01655140519142151,-0.05616885423660278,0.023893041536211967,-0.011116362176835537,0.009428785182535648,0.04291078448295593,-0.06528642028570175,0.025742720812559128,-0.034585509449243546,-0.0613815113902092,0.015663981437683105,-0.014549100771546364,-0.06879322975873947,0.05768653377890587,0.01095051970332861,-0.021878479048609734,0.025111328810453415,0.030157390981912613,-0.044026799499988556,-0.016208093613386154,0.0010226835729554296,0.03854169324040413,0.01892266795039177,0.004136881325393915,-0.012775987386703491,0.03586568310856819,0.025622950866818428,-0.00985646154731512,0.025400660932064056,-0.01954987645149231,-0.02178322710096836,0.021210195496678352,-0.03927971050143242,0.00007847603410482407,0.021548639982938766,-0.029797136783599854,0.0210750512778759,0.036678727716207504,0.02364572137594223,-0.0012190755223855376,-0.0023109347093850374,-0.05156717821955681,0.005280316341668367,0.07886853069067001,0.0330485999584198,-0.0018725583795458078,0.03927578777074814,0.02480359748005867,-0.007401213515549898,-0.061528775840997696,-0.04178871959447861,-0.042222488671541214,0.019428487867116928,0.0030200921464711428,0.02305532433092594,-0.01759379170835018,-0.06191132962703705,0.05876016616821289,0.010286076925694942,0.05225566774606705,0.025502758100628853,-0.03779301419854164,0.0016008105594664812,-0.023587046191096306,-0.049278877675533295,0.04439824819564819,-0.021299421787261963,0.07838790118694305,-0.008771090768277645,0.07135394960641861,0.056136198341846466,-0.026989540085196495,-0.010758120566606522,-0.0023565806914120913,0.0186179019510746,0.050389330834150314,0.04776353761553764,0.0035063924733549356,-0.044923290610313416,-0.02821323275566101,0.017389610409736633,-0.060429222881793976,0.0640786811709404,0.03744804859161377,-0.03253450617194176,0.013856030069291592,-0.016801318153738976,-0.03570545092225075,0.06671983003616333,-0.053733594715595245,0.04560992121696472,-0.029950663447380066,0.024611806496977806,-0.00845909584313631,-0.0024654383305460215,-0.02910536155104637,-0.016616368666291237,0.06837578862905502,-0.07852978259325027,-0.0166846364736557,0.015802791342139244,0.07256194949150085,-0.00249849003739655,0.08952320367097855,-0.03235194832086563,-0.008848458528518677,-0.027063636109232903,0.01006714440882206,0.029234854504466057,0.021585969254374504,0.007887843996286392,0.043571822345256805,-0.030116450041532516,0.0016346576157957315,-0.037486959248781204,0.025032158941030502,-0.059277914464473724,-0.003733373014256358,-0.037944965064525604,0.0038937656208872795,0.05306439846754074,0.055421169847249985,-0.08462100476026535,0.029827667400240898,-0.027449559420347214,0.044160958379507065,0.005630931816995144,0.02398441545665264,0.030451443046331406,-0.010256018489599228,-0.018897173926234245,0.020836401730775833,0.0419674851000309,-0.02536660246551037,-0.004780489020049572,-0.002181303920224309,-0.00890921987593174,0.047917649149894714,0.05028907209634781,0.045530978590250015,0.03941316530108452,0.06530525535345078,0.03323424607515335,0.011925097554922104,0.02591548301279545,-0.014679192565381527,0.014686889946460724,0.029920628294348717,-0.039276037365198135,-0.05284428223967552,-0.09262347966432571,0.07386620342731476,-0.023620303720235825,-0.039202261716127396,-0.03077823854982853,0.07196429371833801,-0.023455914109945297,0.02013242058455944,0.02854553982615471,0.033214665949344635,-0.007501615211367607,0.010705633088946342,-0.03163658455014229,0.013973082415759563,-0.04649767279624939,0.02265421487390995,0.015396335162222385,0.0033750750590115786,0.0002204419724876061,0.0009833850199356675,0.039474014192819595,0.016998885199427605,-0.032001134008169174,-0.026698969304561615,0.04595821723341942,0.05886116251349449,-0.009054603055119514,-0.012643730267882347,-0.0030190045945346355,0.0021562292240560055,0.04343019425868988,-0.061761483550071716,0.027232173830270767,-0.004057640675455332,-0.052770040929317474,-0.025051934644579887,-0.007788744289427996,0.02758348360657692,-0.012657183222472668,-0.014864018186926842,-0.00027271045837551355,0.013131378218531609,0.016382930800318718,-0.026110073551535606,0.003785469802096486,0.019007181748747826,-0.010413137264549732,-0.003132933983579278,-0.01696348935365677,0.10194914042949677,0.00968889705836773,0.03660206124186516,0.019325297325849533,-0.008654405362904072,-0.01880769617855549,-0.0398867130279541,-0.02864477038383484,0.05157065764069557,-0.050225630402565,-0.00044534457265399396,0.008881056681275368,0.038408443331718445,0.015082079917192459,0.011343130841851234,-0.06114577129483223,0.05082688108086586,0.039428845047950745,0.012621118687093258,-0.02664290927350521,-0.06047442555427551,0.010653533972799778,-0.0027989039663225412,0.016938738524913788,-0.04663475230336189,0.04454079270362854,-0.0024926699697971344,-0.033770959824323654,-0.0046907104551792145,0.01870383694767952,0.02117784321308136,0.00834954995661974,-0.02649601921439171,-0.036660317331552505,0.00665322644636035,0.055324994027614594,-0.035431258380413055,0.01503837015479803,0.008706999942660332,0.014507962390780449,-0.04864881932735443,0.019245827570557594,0.0277438722550869,0.027295254170894623,-0.02614210918545723,0.062356267124414444,-0.057012785226106644,0.007292532362043858,-0.011268461123108864,-0.018818434327840805,0.07861258089542389,0.010047277435660362,0.01766703650355339,-0.0011052211048081517,0.08368045836687088,0.05566863343119621,0.05650029703974724,-0.06032532453536987,-0.040340252220630646,-0.030468318611383438,-0.0689714252948761,0.037914033979177475,-0.029325298964977264,0.047834448516368866,0.08013991266489029,0.00345533131621778,0.006894025951623917,-0.05852871388196945,0.07751249521970749,0.08798274397850037,-0.02049730345606804,0.043823614716529846,0.016957558691501617,0.04987272620201111,-0.03842635825276375,0.034528184682130814,-0.016812574118375778,0.01919708028435707,-0.00039788385038264096,-0.012755725532770157,0.04098467528820038,-0.03612066060304642,-0.0006721791578456759,-0.002869900781661272,-0.040331993252038956,0.046697650104761124,-0.057782113552093506,-0.04264720156788826,-0.05373067036271095,0.0004396835283841938,-0.015163933858275414,-0.015037237666547298,-0.033384907990694046,0.0801611915230751,0.02505718730390072,0.07577729970216751,-0.024919671937823296,0.007502224296331406,-0.01998150534927845,0.0913051888346672,0.039242181926965714,0.01169782318174839,0.026579849421977997,-0.014059745706617832,-0.026530394330620766,0.007836418226361275,-0.008705150336027145,-0.008917508646845818,-0.009165449067950249,0.01905112899839878,0.04757058247923851,-0.035634901374578476,-0.03877285122871399,-0.011116175912320614,0.07837090641260147,-0.03209586814045906,-0.04106849804520607,0.045441534370183945,0.011075131595134735,0.05585574731230736,-0.007545229513198137,0.006938717793673277,0.028895178809762,-0.024792706593871117,0.032345276325941086,0.026747064664959908,0.011599738150835037,-0.010915374383330345,0.0526643730700016,0.03392627462744713,-0.034225840121507645,0.0007777357823215425,0.06320475041866302,0.01436206977814436,0.027691544964909554,0.04057189077138901,0.03174784034490585,0.048163458704948425,0.035151172429323196,0.039405569434165955,0.0035565276630222797,-0.06068235635757446,-0.030168186873197556,0.024478087201714516,-0.0036115762777626514,-0.01409224048256874,0.049410056322813034,-0.0016537248156964779,0.013477354310452938,0.01361752673983574,0.0050744544714689255,-0.08669111877679825,0.06761573255062103,0.03333884850144386,-0.005017418880015612,-0.011016879230737686,0.015163436532020569,-0.061534397304058075,0.00947700534015894,0.031898826360702515,0.032458946108818054,0.07553351670503616,0.0019118840573355556,-0.03376670181751251,-0.013203365728259087,-0.017977425828576088,0.03236844018101692,-0.015176789835095406,-0.04884353280067444,0.02125394344329834,-0.013146166689693928,0.017017850652337074,0.011249952018260956,0.015897050499916077,-0.034313127398490906,-0.00949912704527378,-0.020835597068071365,-0.03670477122068405,-0.024909909814596176,0.007358579896390438,0.05808296054601669,-0.0700620487332344,0.027539966627955437,-0.030416302382946014,0.04058552533388138,0.01306559145450592,0.021454375237226486,0.03287193179130554,-0.036152858287096024,0.0036768196150660515,-0.05270519480109215,-0.06254823505878448,-0.06771653890609741,0.010798489674925804,-0.01101674698293209,-0.023079929873347282,-0.016560018062591553,0.008999340236186981,-0.03369900956749916,-0.030870037153363228,0.03962888941168785,0.027085425332188606,-0.004975777585059404,-0.014067552052438259,0.05588764697313309,0.009403138421475887,0.006072192918509245,0.09925713390111923,0.011894771829247475,0.01125070359557867,0.04734448343515396,-0.0076167588122189045,0.034401487559080124,-0.04391402751207352,0.023873070254921913,-0.016415081918239594,0.002572242636233568,-0.03583294898271561,0.009013683535158634,-0.027256513014435768,0.01666039414703846,-0.03487353026866913,-0.0664697214961052,-0.021562056615948677,0.027598164975643158,-0.023062771186232567,-0.01246347650885582,-0.06403861939907074,0.02358936332166195,-0.03690973296761513,0.010104505345225334,-0.04724502190947533,-0.01415200438350439,-0.0067442539148032665,0.01522154826670885,-0.004462323151528835,0.0012558598536998034,-0.04920096695423126,-0.010979917831718922,-0.0308244526386261,-0.05129478871822357,0.009158957749605179,-0.007051670923829079,-0.04705406725406647,0.011747769080102444,0.08504874259233475,-0.029366517439484596,0.019753798842430115,-0.024865444749593735,0.09157218784093857,0.04136524721980095,0.028069190680980682,0.020583216100931168,-0.05695655941963196],[-0.0077665578573942184,0.02127157151699066,-0.012379249557852745,0.024185238406062126,-0.0006452077650465071,-0.05897677317261696,-0.004490972962230444,-0.008802496828138828,0.02748061716556549,-0.00256931665353477,0.023847011849284172,-0.013509426265954971,-0.05448286235332489,-0.037404708564281464,0.036081038415431976,0.0010115334298461676,0.010242342948913574,-0.013153616338968277,0.015651652589440346,-0.03945989906787872,0.04957116022706032,0.03654634207487106,0.04954149201512337,-0.06036267802119255,0.09652408212423325,0.04788227751851082,-0.011104150675237179,0.03588574752211571,0.008352630771696568,-0.035753242671489716,0.01115902978926897,-0.04717985913157463,-0.0032119143288582563,-0.014251497574150562,0.0018591898260638118,-0.009652998298406601,0.008500858210027218,-0.030772004276514053,0.0009878695709630847,-0.03592680022120476,-0.040974896401166916,0.046895500272512436,-0.0605667382478714,0.03474912792444229,-0.019925380125641823,0.04299022629857063,-0.007659498602151871,-0.03890511393547058,0.049581822007894516,0.06030098721385002,0.006133661605417728,0.017941119149327278,0.00003533853669068776,0.0009184793452732265,-0.013698111288249493,0.00850412156432867,-0.06868442893028259,-0.007449756842106581,-0.07564957439899445,-0.0004063254746142775,-0.007285073399543762,0.0365966334939003,-0.04507196694612503,-0.029912438243627548,0.08058558404445648,0.030068038031458855,-0.06981059908866882,0.035302456468343735,-0.030127057805657387,-0.010942738503217697,-0.03774595260620117,0.01439565047621727,-0.0170070081949234,-0.008206462487578392,-0.02438514679670334,-0.0002082503924611956,0.036935023963451385,0.028872445225715637,-0.057851795107126236,0.04090634360909462,0.04125778377056122,-0.04949058219790459,0.004694603383541107,-0.0036390614695847034,0.002331995405256748,0.04055287688970566,-0.01791292615234852,0.004114254377782345,-0.051084455102682114,-0.06622417271137238,0.019232289865612984,-0.010242223739624023,-0.015545202419161797,-0.09963895380496979,0.0026286470238119364,-0.03714575618505478,0.015104232355952263,0.04236428439617157,-0.018732426688075066,-0.042902544140815735,0.018504159525036812,0.016770124435424805,-0.007037739269435406,-0.02789773792028427,-0.08940369635820389,-0.019584527239203453,0.023119373247027397,-0.04171483591198921,-0.04934062063694,-0.03871409222483635,-0.0509716160595417,-0.05593932792544365,0.002895364072173834,0.05399474874138832,0.04060307890176773,0.04408284276723862,-0.018566405400633812,0.012575623579323292,0.02208889275789261,-0.004149205982685089,-0.004621576052159071,0.03895626217126846,0.0007598800002597272,0.032349687069654465,-0.05139436572790146,-0.0013012682320550084,-0.02248656004667282,-0.0056516192853450775,-0.0600135400891304,-0.0709725096821785,-0.014560557901859283,0.002891679760068655,0.024230046197772026,-0.030267629772424698,-0.008389233611524105,-0.04973054304718971,0.013104886747896671,-0.04990525171160698,0.04107516631484032,-0.05022945627570152,0.023733414709568024,-0.01712224818766117,0.03441166877746582,0.026029668748378754,-0.02693120576441288,-0.06561766564846039,-0.013997919857501984,-0.004033988807350397,-0.07112863659858704,-0.045971114188432693,-0.05281464010477066,-0.03296738862991333,-0.06616714596748352,-0.04346376284956932,0.023958180099725723,0.02529045194387436,-0.07570594549179077,-0.011953752487897873,-0.013871053233742714,-0.001131985685788095,-0.05137838050723076,-0.007133771199733019,-0.026304906234145164,0.06981442868709564,-0.06714930385351181,0.03917680308222771,0.042383287101984024,-0.012543314136564732,-0.01677253283560276,-0.03240903094410896,-0.028889300301671028,0.01674065925180912,0.0198673103004694,0.032329291105270386,-0.019654320552945137,-0.0005879232776351273,-0.028624122962355614,0.03347108140587807,-0.03391784429550171,0.03216492384672165,-0.032466281205415726,-0.08231581002473831,-0.06203453615307808,0.018736915662884712,0.00933314859867096,0.013025824911892414,-0.02452404424548149,-0.028537824749946594,-0.03394560515880585,-0.011085101403295994,0.05984571948647499,0.013752763159573078,0.03609716519713402,0.03024747036397457,0.015938302502036095,0.03427154943346977,0.02815370261669159,-0.026474464684724808,-0.0021640192717313766,0.06318444758653641,0.0066791414283216,-0.04125572368502617,0.016007352620363235,-0.02901599369943142,-0.06431350857019424,-0.009520120918750763,0.023002654314041138,0.05211499705910683,-0.050482504069805145,-0.022100402042269707,0.05093331262469292,-0.010749679990112782,0.036166008561849594,-0.003989419434219599,-0.03547705337405205,-0.0002831642341334373,0.058790285140275955,-0.03274208679795265,-0.013541351072490215,-0.025416579097509384,-0.024165840819478035,0.0156250037252903,0.060515839606523514,0.0437866672873497,0.007275723852217197,0.02292323112487793,0.01583511009812355,-0.01079805288463831,0.004636446945369244,-0.09191697090864182,0.047388460487127304,-0.006592783611267805,-0.07137143611907959,-0.046473611146211624,-0.017735349014401436,-0.04271186888217926,-0.003144672140479088,0.016778888180851936,-0.038135379552841187,-0.016892151907086372,-0.06500855088233948,0.03675200790166855,0.006111873313784599,-0.012782149016857147,-0.009853544645011425,-0.006110982038080692,0.055486105382442474,-0.0020828626584261656,0.07006807625293732,-0.034566041082143784,-0.002364714862778783,0.03991769626736641,0.04154228791594505,0.013595743104815483,0.023481620475649834,-0.012693742290139198,-0.05481896921992302,-0.008462830446660519,-0.031251274049282074,0.023526441305875778,-0.029719572514295578,-0.0161635372787714,0.056604813784360886,-0.005168326199054718,-0.007249575573951006,0.03371315076947212,0.007594326976686716,0.02394627407193184,0.06475873291492462,-0.05646197497844696,0.00885589700192213,-0.0057371738366782665,0.014844878576695919,-0.047005075961351395,0.004638766869902611,-0.01065411139279604,-0.006748299114406109,0.047278422862291336,0.039791107177734375,0.049330685287714005,0.04931177198886871,0.001775273703970015,-0.046391312032938004,-0.021384457126259804,0.011152000166475773,-0.059989482164382935,0.015293770469725132,0.022161349654197693,0.01973041519522667,0.05120489001274109,0.019436493515968323,-0.03605484962463379,-0.0045670634135603905,-0.025118332356214523,0.006542548071593046,0.013863630592823029,0.0162179134786129,0.009545517154037952,-0.04850049316883087,-0.0716504454612732,0.02864612638950348,0.05474909022450447,-0.036005157977342606,0.09547674655914307,-0.008454537019133568,-0.011641182936728,-0.007156149484217167,-0.027746528387069702,0.03149096667766571,-0.011625200510025024,0.034132104367017746,-0.015635669231414795,-0.009404283948242664,-0.009444823488593102,0.03801437467336655,-0.024847710505127907,-0.03580675646662712,-0.05322282388806343,0.0365191213786602,0.01194620318710804,0.0016334278043359518,0.019002480432391167,0.020830277353525162,-0.014923909679055214,-0.0284376572817564,-0.0038180178962647915,0.012501852586865425,-0.06016448512673378,-0.07388992607593536,-0.0929068773984909,-0.060070499777793884,-0.06705740839242935,-0.05352061614394188,-0.004332962445914745,-0.01573929935693741,0.04810507223010063,0.07272358238697052,0.014443894848227501,0.03892253711819649,-0.003918796312063932,-0.06729810684919357,0.028132310137152672,-0.043480828404426575,0.030390383675694466,-0.05348820239305496,0.03710943087935448,-0.018865346908569336,0.003875225782394409,-0.021246163174510002,0.06078779324889183,-0.03173215687274933,0.032555125653743744,0.04315006360411644,0.002257674466818571,-0.044838860630989075,-0.0375300869345665,-0.01696200668811798,-0.09226509183645248,-0.1155499741435051,-0.06805571913719177,-0.08067920058965683,-0.11054392158985138,-0.06065240502357483,0.00008572523802286014,-0.025516290217638016,0.034096237272024155,-0.04072406142950058,0.037395209074020386,-0.001538595650345087,0.04504460468888283,-0.016649123281240463,-0.022843874990940094,-0.00422052014619112,0.0023590191267430782,0.020460020750761032,0.029587892815470695,0.0193659495562315,-0.0056548831053078175,0.04375781863927841,0.0008004877017810941,0.0017378826159983873,0.03670429065823555,-0.031249957159161568,-0.018681267276406288,-0.0009442127193324268,-0.042057450860738754,-0.052288953214883804,-0.10965253412723541,-0.019001727923750877,-0.05554914101958275,-0.08968594670295715,-0.04452310875058174,0.013962599448859692,0.038092467933893204,-0.001157255144789815,0.03664529323577881,0.010823363438248634,0.02581193298101425,0.04741161689162254,0.03301471844315529,-0.03353501111268997,-0.052767541259527206,-0.043703023344278336,-0.00021131333778612316,0.02361357770860195,-0.006302303168922663,-0.0030309332069009542,-0.025415783748030663,0.007684778422117233,-0.04497719183564186,-0.00724887615069747,-0.02774098701775074,-0.03936043009161949,0.03156246989965439,0.021403273567557335,-0.017948929220438004,-0.08803758770227432,-0.02966790646314621,-0.05899970978498459,-0.04394325241446495,-0.014395443722605705,-0.005640658084303141,0.022503284737467766,0.028575116768479347,-0.059229958802461624,-0.003572457004338503,-0.03417520970106125,0.042769309133291245,-0.01898103393614292,-0.02520885318517685,-0.02000073529779911,-0.05654506757855415,0.005727618932723999,-0.01821703277528286,0.0041434853337705135,0.04004337638616562,0.0006632846780121326,0.016710443422198296,-0.014685984700918198,-0.003990496974438429,0.013987457379698753,-0.032793112099170685,0.008800683543086052,-0.08870439976453781,0.013358216732740402,-0.014694388955831528,-0.03819739446043968,0.004705584608018398,-0.0027276433538645506,-0.06719700992107391,0.04263639450073242,0.009407905861735344,0.027748113498091698,-0.014791340567171574,0.04301426559686661,-0.006824483163654804,0.02391190640628338,-0.009731920436024666,0.026529021561145782,-0.011434891261160374,-0.008429823443293571,0.02410859614610672,-0.02248663827776909,0.011357641778886318,-0.0420420877635479,-0.037779998034238815,-0.057661112397909164,-0.013794929720461369,0.0016531263245269656,0.02612805925309658,-0.006435082294046879,0.01715332269668579,-0.07141907513141632,-0.03346245363354683,0.0033975904807448387,0.029657168313860893,-0.03881701081991196,0.008391903713345528,-0.0279175266623497,0.010768898762762547,-0.005962013732641935,0.003155034501105547,-0.0063043260015547276,0.04164975509047508,0.002702855970710516,0.03675919398665428,-0.034292977303266525,-0.03215142339468002,-0.04118301346898079,-0.02353583090007305,-0.07258513569831848,-0.043033961206674576,0.005441117100417614,-0.0194674264639616,0.031559668481349945,0.040899261832237244,-0.000707122148014605,0.03264375403523445,0.039797343313694,-0.026353374123573303,-0.025839945301413536,-0.03131618723273277,-0.008882544934749603,-0.02057500183582306,0.0007719385321252048,-0.0627446323633194,-0.03865873068571091,0.003973651677370071,-0.03524326533079147,0.041646990925073624,-0.013742663897573948,0.032801028341054916,0.02304532565176487,0.020554764196276665,0.02133079804480076,-0.03264420107007027,-0.028306489810347557,-0.024028664454817772,-0.036553725600242615,0.042858779430389404,0.002475061221048236,-0.03327588737010956,-0.021737821400165558,0.010032995603978634,-0.0019626503344625235,-0.02539787068963051,-0.03911609575152397,-0.04655816778540611,0.03645133599638939,-0.019735662266612053,-0.015818772837519646,-0.012204566039144993,0.07025658339262009,-0.05107246711850166,0.013160336762666702,0.0684819445014,0.042414888739585876,-0.016730668023228645,-0.015663236379623413,0.0009946773061528802,-0.03585405647754669,-0.046581197530031204,0.0583973228931427,0.04366522654891014,-0.0032137823291122913,0.015323521569371223,0.047121163457632065,0.015623925253748894,-0.016730815172195435,0.024999530985951424,0.03215239569544792,-0.013207104988396168,0.053041450679302216,0.0344480499625206,0.013352504000067711,-0.0817820355296135,-0.0011491168988868594,-0.03129173070192337,-0.044545728713274,-0.0006075981073081493,0.008456788957118988,-0.012051647529006004,0.0021712728776037693,0.0288427472114563,-0.06386934220790863,0.00041583142592571676,-0.044655684381723404,0.0014510672772303224,0.033922698348760605,-0.004264955408871174,0.033217903226614,0.03542420640587807,-0.0008147360058501363,-0.012193555012345314,0.016198907047510147,-0.012185848318040371,0.024841725826263428,-0.058873340487480164,0.029289038851857185,-0.04828321933746338,-0.011551782488822937,-0.014392240904271603,0.024724425747990608,0.04891945421695709,-0.0019182658288627863,0.026606323197484016,-0.028673604130744934,0.015014915727078915,0.03714878484606743,0.0034229313023388386,0.01625232957303524,0.021221306174993515,-0.016951533034443855,-0.038181718438863754,0.02040761522948742,-0.04798245057463646,0.02134980447590351,0.013133321888744831,-0.0600581057369709,0.060609642416238785,0.0005951137864030898,-0.0006444047903642058,0.013510164804756641,-0.01356249675154686,0.01808219589293003,-0.018335212022066116,0.011669646017253399,0.011986597441136837,0.019192339852452278,0.04291863366961479,0.013760155998170376,-0.04470223933458328,0.031333062797784805,0.051711078733205795,0.03145534545183182,0.006903108209371567,0.0029904975090175867,-0.03830726444721222,0.011268794536590576,0.03437246382236481,0.07543082535266876,0.003852351801469922,-0.0715903490781784,-0.003924451768398285,-0.02587905153632164,-0.05126061663031578,0.053528930991888046,-0.023417778313159943,0.014374126680195332,0.0663934051990509,0.03060910850763321,0.010160247795283794,-0.0032803548965603113,0.02165127918124199,-0.010885526426136494,-0.011639947071671486,-0.033543769270181656,-0.02289382368326187,-0.013866000808775425,-0.04258743301033974,0.021465769037604332,-0.014678497798740864,0.01915295422077179,-0.015306036919355392,-0.0602368600666523,0.07673180103302002,-0.036400459706783295,-0.001615936984308064,0.017019739374518394,0.004824897740036249,0.06014348194003105,0.03233351558446884,-0.006236360874027014,0.01823432184755802,-0.01213577389717102,-0.020139403641223907,0.03937935456633568,-0.040974438190460205,0.001595663488842547,0.022889917716383934,-0.017381493002176285,0.01410264614969492,-0.005671912804245949,0.03694295138120651,-0.03113604336977005,0.013790038414299488,-0.03136363998055458,-0.010295657441020012,0.03126107156276703,-0.027098670601844788,0.052146267145872116,-0.03553231433033943,0.057756077498197556,0.003242137609049678,-0.04424718767404556,0.008035596460103989,0.05588178709149361,0.040734536945819855,0.017081275582313538,-0.04139895364642143,0.01272607035934925,0.012402474880218506,0.007015773095190525,-0.017108380794525146,-0.014416019432246685,0.02944209799170494,0.015728821977972984,0.021246662363409996,0.030214248225092888,-0.008559092879295349,-0.017130767926573753,0.02326679229736328,-0.0005809894646517932,0.046345971524715424,0.008076474070549011,0.0005358747439458966,-0.0502660907804966,0.0007263162988238037,0.0835367813706398,-0.017677124589681625,0.01765059120953083,0.05572785437107086,0.04977284371852875,-0.02432662807404995,0.05602111667394638,-0.04214491322636604,0.022523583844304085,0.019638629630208015,-0.009547468274831772,0.025243837386369705,-0.04827698692679405,-0.028255652636289597,-0.008620615117251873,0.0017963818972930312,0.008623544126749039,-0.01408094447106123,0.013649801723659039,-0.042552657425403595,-0.012435671873390675,-0.0025483318604528904,0.014579475857317448,0.030701665207743645,0.019374992698431015,-0.004848310258239508,-0.050864532589912415,-0.002799462294206023,-0.0019721395801752806,-0.0483512282371521,0.013194522820413113,0.030903015285730362,0.036371998488903046,0.01540075708180666,-0.058295655995607376,-0.016640333458781242,0.01115941721946001,0.04349754750728607,-0.007098650559782982,-0.007533647585660219,0.08285609632730484,-0.010633805766701698,0.008035865612328053,0.003966525662690401,-0.0026280605234205723,-0.0061453585512936115,-0.003086223965510726,-0.009970689192414284,-0.007748749107122421,0.0060217115096747875,-0.08916500210762024,-0.03616603836417198,-0.03580937162041664,-0.030983399599790573,0.017918061465024948,0.05442127585411072,0.020463449880480766,0.039744600653648376,0.018188467249274254,-0.007010740227997303,0.012863877229392529,0.035448119044303894,0.011627391912043095,-0.000019832314137602225,-0.006428257096558809,-0.027161777019500732,-0.023132720962166786,0.045404303818941116,-0.00833792332559824,-0.03099130652844906,0.021004410460591316,0.024475576356053352,0.06268901377916336,-0.01562534272670746,-0.06869702786207199,0.0200258307158947,0.06764239072799683,0.023730281740427017,-0.046342819929122925,0.03303644433617592,-0.04189946502447128,0.0420524999499321,0.047930654138326645,-0.046314787119627,-0.04042178764939308,-0.02149919420480728],[0.005884372629225254,0.009574566036462784,-0.06812343746423721,-0.027095694094896317,0.0403812900185585,0.058816660195589066,-0.02936968393623829,-0.02202548272907734,0.006173217669129372,-0.023064257577061653,-0.03462788835167885,0.035585496574640274,-0.06059727817773819,-0.0032656555995345116,-0.08132880926132202,-0.010132336989045143,-0.025117948651313782,0.033927395939826965,-0.0021632432471960783,-0.04638929292559624,-0.012271582148969173,-0.021679390221834183,0.007654112298041582,0.032578784972429276,0.043756935745477676,-0.05798889696598053,-0.0024408898316323757,-0.02117861434817314,0.008752468973398209,0.06646731495857239,-0.06412923336029053,-0.07766120135784149,0.01655355468392372,0.03980058431625366,0.006134115159511566,-0.07866515219211578,-0.04255020618438721,0.0019220893736928701,0.024648455902934074,0.020649347454309464,-0.03478994220495224,0.005469234194606543,-0.007868879474699497,-0.0418497659265995,0.06733646243810654,-0.04067511856555939,-0.0537850521504879,0.027965547516942024,0.04937288165092468,0.010726824402809143,-0.050147995352745056,0.03204364702105522,0.004966143984347582,0.016891775652766228,-0.02897563949227333,-0.032322414219379425,-0.013945025391876698,0.007533142808824778,-0.001822610036469996,0.006256388500332832,-0.005717684514820576,-0.02595546841621399,-0.005717349238693714,0.01042350847274065,-0.0476626381278038,-0.01155353058129549,0.013085069134831429,-0.024090763181447983,-0.07537071406841278,-0.042685601860284805,-0.020541124045848846,-0.0142041752114892,-0.003608815371990204,0.024467753246426582,0.048146579414606094,0.004841463640332222,-0.017164690420031548,-0.013955161906778812,0.04745347052812576,-0.023757316172122955,0.05178389325737953,0.0724092349410057,-0.0037605229299515486,-0.05113677307963371,0.01915980875492096,0.03983248025178909,-0.0018175154691562057,0.04043686017394066,-0.012305774725973606,-0.002741437405347824,0.03264316916465759,-0.04420725628733635,-0.006218109745532274,-0.037341803312301636,0.048216164112091064,0.019902443513274193,0.07071658223867416,-0.061009086668491364,-0.001919097499921918,-0.010629035532474518,-0.06339055299758911,0.005058059003204107,0.07694876194000244,0.06332562118768692,0.02621597982943058,-0.03435185179114342,0.0034602165687829256,0.04051276668906212,0.04727339372038841,0.03847726434469223,0.016068248078227043,0.04288053140044212,0.00541575625538826,-0.026034045964479446,-0.008946284651756287,-0.07771699875593185,-0.027833901345729828,0.05756578594446182,0.008266065269708633,0.03277088701725006,0.031160887330770493,-0.004797193221747875,0.043179892003536224,-0.04092922806739807,0.014927915297448635,-0.02110661193728447,0.006719448138028383,-0.013204872608184814,-0.015474124811589718,-0.04391743242740631,0.04814639315009117,-0.06530880928039551,0.028418364003300667,0.012039192020893097,0.06439881026744843,-0.02184009552001953,0.01698130927979946,0.01859273388981819,0.036958083510398865,-0.012980429455637932,-0.03759365901350975,-0.057387787848711014,-0.01743348501622677,-0.040319573134183884,0.04596769064664841,0.011760509572923183,-0.04593230411410332,0.009061411954462528,-0.00309396767988801,-0.07420314103364944,-0.03900820389389992,0.011669947765767574,-0.06427635997533798,-0.07803819328546524,-0.00992814265191555,0.011439641006290913,-0.011308841407299042,0.06226059049367905,-0.009343719109892845,0.006834911648184061,0.03402303159236908,0.005790894851088524,-0.0772823616862297,0.03893819823861122,-0.054958172142505646,-0.03226287662982941,-0.042283255606889725,0.025779491290450096,0.06488069146871567,0.01233458612114191,-0.011898933909833431,-0.006830727215856314,0.007544377818703651,0.039487164467573166,-0.014545498415827751,0.02541103959083557,0.03601383417844772,0.0017385687679052353,0.033058200031518936,-0.040793344378471375,0.06366341561079025,-0.0059244148433208466,-0.06644723564386368,-0.06678687036037445,-0.038371846079826355,-0.0057946378365159035,-0.04476458951830864,-0.01087629608809948,-0.009504810906946659,-0.002333147684112191,0.013215625658631325,-0.06789511442184448,-0.02081678807735443,-0.010682491585612297,0.01823383942246437,-0.010081537067890167,-0.020700499415397644,0.0028882974293082952,-0.0037077099550515413,0.04133285954594612,0.007001481018960476,-0.008239838294684887,0.018016742542386055,0.0034368077758699656,0.07654367387294769,-0.02404160611331463,-0.012900869362056255,0.017645014449954033,0.023058559745550156,0.026727907359600067,-0.0359865166246891,0.01024940051138401,0.0467643216252327,0.00629908312112093,-0.04035035893321037,-0.05435718968510628,0.004865473136305809,-0.05073123052716255,0.053731027990579605,0.03578605502843857,0.013999179936945438,0.023919275030493736,-0.0679042711853981,-0.04264713451266289,-0.031758468598127365,-0.05072569474577904,-0.001376636791974306,0.05613720789551735,0.002226993441581726,0.00507285026833415,0.034227363765239716,0.04039556905627251,-0.03446052595973015,0.006848757620900869,0.006630541756749153,0.0069282096810638905,-0.025762218981981277,-0.05184835568070412,0.05350786820054054,0.033312562853097916,-0.023237867280840874,0.06525864452123642,0.03014370985329151,-0.006332158576697111,-0.05884254723787308,-0.040826767683029175,0.018507812172174454,0.02101135440170765,0.006343324203044176,0.028257934376597404,-0.05989150330424309,-0.006178288254886866,0.022686030715703964,0.002229356672614813,0.049992628395557404,0.020465727895498276,-0.014342589303851128,0.019395403563976288,0.023049846291542053,-0.009216245263814926,0.03565402328968048,-0.0789785236120224,-0.046201739460229874,-0.04284711927175522,-0.03967427834868431,-0.06042390316724777,-0.01970682665705681,0.03512159362435341,-0.01746857352554798,-0.03524370118975639,0.01178570743650198,-0.07047472894191742,0.02764282561838627,0.01028503943234682,-0.004902041982859373,0.013465124182403088,-0.03567937761545181,-0.05943988636136055,-0.053136181086301804,0.03433869034051895,0.0046672518365085125,-0.04704393446445465,0.004583508707582951,0.04384303092956543,0.044817965477705,-0.07517782598733902,0.0000777284221840091,0.017496291548013687,0.018015453591942787,0.00327479001134634,0.024445632472634315,0.04995063319802284,0.07053352147340775,0.0713944062590599,-0.00438981968909502,0.021170299500226974,0.07464692741632462,0.07035938650369644,-0.0114591671153903,0.0459924079477787,0.02515031024813652,-0.056435368955135345,0.0360531248152256,0.02086554653942585,-0.01881769485771656,0.013179152272641659,-0.06541857123374939,0.00199116300791502,0.008271743543446064,0.058838121592998505,-0.018453547731041908,-0.0562283918261528,-0.007386079523712397,-0.049423687160015106,-0.03353280574083328,0.029278436675667763,-0.008670640178024769,-0.05994561314582825,-0.06949868053197861,-0.02113204263150692,0.012718670070171356,0.0008183869067579508,-0.06989116966724396,0.031682077795267105,0.042145561426877975,0.02381109818816185,-0.041728872805833817,-0.031040024012327194,-0.023628683760762215,0.0023843906819820404,0.0007651189807802439,-0.001354167819954455,0.08373352140188217,-0.03202536702156067,-0.01944768987596035,-0.029293961822986603,0.009009263478219509,-0.03699629008769989,-0.022649940103292465,-0.015316158533096313,-0.018473513424396515,0.04540862888097763,-0.03551069274544716,0.021849192678928375,-0.022702667862176895,-0.05351165309548378,-0.04390549287199974,0.025505343452095985,0.0005429747398011386,0.056041229516267776,0.008249109610915184,0.018455341458320618,0.025513509288430214,-0.05485385283827782,0.026140877977013588,0.014349662698805332,-0.058027058839797974,-0.04105721786618233,-0.07224710285663605,0.06679052114486694,0.0012059739092364907,0.040807951241731644,-0.04999971389770508,-0.02848667837679386,0.025761500000953674,-0.004126412328332663,0.03406154736876488,0.016142571344971657,0.03980819508433342,0.018269095569849014,0.02398928999900818,-0.08547504246234894,0.030808230862021446,-0.016329606994986534,-0.052598509937524796,-0.04754483699798584,0.03829459473490715,0.03951610252261162,0.05721933767199516,0.014647274278104305,-0.0634387880563736,-0.005305900704115629,0.011193716898560524,0.016804462298750877,-0.05345829948782921,-0.035783711820840836,-0.05077311396598816,0.03603639826178551,0.03378767892718315,-0.021394575014710426,-0.05560518801212311,0.01794886589050293,0.04047796130180359,0.0027721633668988943,0.018353188410401344,-0.03623123839497566,0.02924572117626667,-0.013681385666131973,-0.03011012077331543,0.0023780805058777332,-0.07608772814273834,-0.006687944754958153,0.046601030975580215,-0.005667375400662422,0.03656568378210068,0.02179885096848011,-0.031613338738679886,-0.012952527031302452,0.004650407936424017,0.010063706897199154,0.016172219067811966,-0.013799367472529411,-0.009306954219937325,0.0030797473154962063,-0.03211682289838791,-0.03615260124206543,0.01260058581829071,-0.05010741949081421,-0.04744759947061539,0.08032956719398499,0.0608096644282341,0.01338319480419159,-0.008095338009297848,0.006071874871850014,0.03310927003622055,0.005068487953394651,0.014085516333580017,-0.006931005045771599,0.053728532046079636,0.0020661207381635904,-0.013983762823045254,0.026268018409609795,0.009806510992348194,0.05239231884479523,0.02704903669655323,0.013946397230029106,-0.02963840402662754,-0.019204208627343178,0.04515019431710243,0.006681509781628847,-0.013555387035012245,-0.03378181904554367,-0.020574206486344337,-0.03749850392341614,0.06438092887401581,-0.05646081641316414,-0.02027483657002449,0.0007138418150134385,0.019945448264479637,0.0049486649222671986,-0.00923945102840662,0.04647626727819443,0.0015505981864407659,-0.016433503478765488,0.01428005937486887,-0.043872520327568054,-0.07372700423002243,0.015490925870835781,-0.04122544452548027,0.03606788441538811,-0.027561647817492485,0.020042823627591133,0.01983495056629181,0.004218191374093294,-0.0707426369190216,0.01437587570399046,-0.03022170439362526,0.0020796707831323147,-0.020458273589611053,-0.06170060113072395,0.0009436154505237937,-0.07836885005235672,0.05997191369533539,0.011872789822518826,0.039186809211969376,-0.03170391917228699,0.02184155024588108,0.007776683662086725,-0.04989868029952049,-0.01483804639428854,-0.025638345628976822,0.030535032972693443,0.0040589869022369385,0.045608825981616974,0.04001406207680702,0.024846551939845085,-0.021476350724697113,-0.021260444074869156,0.017281971871852875,0.00432580104097724,-0.004982956685125828,-0.04742741584777832,-0.06279724091291428,-0.00869925506412983,-0.03952254727482796,0.033364541828632355,0.02003186196088791,-0.055388230830430984,-0.05153530836105347,-0.0403577946126461,0.022993411868810654,0.011186983436346054,-0.0029211267828941345,0.02856225147843361,-0.001093123690225184,0.05329369008541107,0.039702583104372025,0.05492206662893295,0.011836814694106579,-0.02271430939435959,-0.059793151915073395,0.016133131459355354,-0.07082895189523697,-0.06452368944883347,-0.009655024856328964,0.01906476356089115,0.012702316045761108,0.03311800956726074,0.022231444716453552,-0.032980144023895264,-0.0018659294582903385,0.022028593346476555,0.06404469907283783,0.03492739424109459,-0.02254892699420452,0.08814851939678192,-0.002034008502960205,0.019052287563681602,-0.0058697848580777645,0.011816673912107944,-0.0038686220068484545,0.04686444625258446,0.026823511347174644,0.05723452940583229,-0.01464654691517353,0.07904776185750961,0.010622343979775906,0.0036540296860039234,-0.05817880854010582,-0.007719190325587988,0.0304835457354784,-0.07410036027431488,0.0333307608962059,0.024717018008232117,0.006963261403143406,0.0006625734968110919,-0.02535305730998516,-0.0490977019071579,0.04984314367175102,0.007879199460148811,0.02786102704703808,-0.0282142274081707,-0.036743082106113434,-0.007839983329176903,-0.035256560891866684,0.03017326444387436,0.05883153900504112,0.048953283578157425,0.05241985246539116,-0.017986156046390533,-0.007374245207756758,0.020209506154060364,-0.039691951125860214,-0.03739272430539131,0.0017725112847983837,0.04938507080078125,0.029594574123620987,-0.024006737396121025,0.020924333482980728,0.06162722036242485,-0.06488656252622604,0.019583644345402718,0.042707495391368866,-0.05664166808128357,0.0020866754930466413,0.028482133522629738,0.02824210561811924,0.09062576293945312,-0.004804292693734169,0.0011478265514597297,0.0018044172320514917,0.03915371745824814,0.028653891757130623,-0.003436007769778371,0.009024223312735558,0.014400443062186241,0.009654739871621132,-0.03973592072725296,0.033995650708675385,0.001819171360693872,0.06405731290578842,0.04087585583329201,-0.07822278887033463,-0.0010341645684093237,0.008420567959547043,0.0464198924601078,-0.058320701122283936,-0.0025725779123604298,0.03472534194588661,-0.05872776731848717,-0.04845418781042099,-0.03240315988659859,0.055880043655633926,0.09256786853075027,0.037652283906936646,0.01077284011989832,0.03592406213283539,0.010479970835149288,-0.022994207218289375,-0.031737782061100006,0.004788804333657026,0.0031998478807508945,-0.0361342653632164,0.006324711721390486,0.03164767473936081,0.05027853325009346,0.027599412947893143,-0.032143715769052505,0.013092908076941967,-0.054623253643512726,0.04247657582163811,-0.04013708978891373,0.0006148444372229278,0.019539322704076767,0.014439734630286694,-0.0013546234695240855,-0.03819292038679123,-0.010188085958361626,-0.04549125209450722,-0.05270836129784584,-0.005889217834919691,-0.031452327966690063,-0.04035160318017006,0.012779023498296738,-0.041184961795806885,0.05021204426884651,-0.0155454371124506,-0.03524888679385185,-0.023404382169246674,-0.060061391443014145,0.004915079567581415,0.012951931916177273,-0.01361580565571785,0.03838625177741051,-0.038923561573028564,0.0633980855345726,-0.0070089963264763355,-0.05097334086894989,-0.0248293187469244,0.020895063877105713,-0.03403398022055626,-0.04244326800107956,0.009721220470964909,-0.04852745682001114,0.07296281307935715,0.020400766283273697,-0.05370659753680229,-0.009932508692145348,-0.07229280471801758,-0.03644610196352005,-0.013063326478004456,-0.02402917668223381,-0.029829641804099083,0.025573985651135445,0.02514619752764702,0.0014648057986050844,-0.008079923689365387,-0.027454515919089317,-0.011078123934566975,0.01264444924890995,-0.04774869978427887,-0.005799104925245047,-0.015493716113269329,-0.02113744243979454,-0.05159842595458031,-0.006320127751678228,0.03194360062479973,-0.01404251903295517,-0.052100129425525665,-0.05617370828986168,-0.006892743520438671,-0.02897731401026249,-0.027811745181679726,-0.02216782420873642,-0.03086468204855919,-0.009702482260763645,0.03812212496995926,0.06273379921913147,-0.05581691116094589,-0.020361632108688354,-0.0007205692818388343,0.04332057386636734,0.037164799869060516,-0.0014386660186573863,-0.005984585266560316,0.025447314605116844,-0.0021481092553585768,0.0412471629679203,0.04532662034034729,0.0012487033382058144,0.012913582846522331,-0.03712194040417671,0.03791413828730583,-0.06735502928495407,-0.011840350925922394,0.05365939810872078,-0.025692297145724297,-0.01633712276816368,0.012057366780936718,-0.01283478457480669,0.06143631041049957,-0.008535660803318024,0.030207280069589615,0.04731481149792671,-0.033481139689683914,-0.00447186129167676,-0.04313550516963005,-0.021689655259251595,-0.019722210243344307,0.05758995562791824,0.011124387383460999,-0.010398885235190392,0.021961098536849022,0.006516815163195133,-0.011466690339148045,-0.014193407259881496,0.029485562816262245,-0.030052410438656807,0.06745754927396774,0.001052897423505783,-0.04569086804986,-0.0031338371336460114,0.0006805466837249696,0.034006886184215546,-0.0400770902633667,-0.03535250201821327,-0.05609401687979698,0.018111271783709526,-0.010733041912317276,0.04232175275683403,-0.0568426251411438,0.020563915371894836,-0.005154051817953587,0.02043803408741951,-0.012462533079087734,-0.018994567915797234,0.0284283384680748,-0.04316249489784241,0.012038406915962696,0.032530464231967926,0.006180114578455687,0.02302742190659046,0.04918438196182251,-0.023701565340161324,-0.001007552957162261,0.04545541852712631,-0.03554604947566986,0.04539347440004349,0.025469385087490082,0.0112199317663908,0.040160395205020905,0.026097968220710754,-0.00800692941993475,-0.011978882364928722,0.03477291017770767,0.009272808209061623,0.049072086811065674,-0.014690409414470196,-0.049297481775283813,-0.03436507284641266,-0.0038786253426223993,0.01260237954556942,-0.0019231049809604883,0.027650251984596252,-0.029824519529938698,0.010154470801353455,-0.015884732827544212,0.06793306767940521,0.0035427408292889595,0.013188006356358528,-0.020558036863803864,0.009790834039449692,-0.05620179325342178,0.009721566922962666],[0.0448569692671299,-0.012788450345396996,0.009647845290601254,0.01545023638755083,0.05393892526626587,0.019851652905344963,0.033923014998435974,0.031029870733618736,-0.019657433032989502,0.005106479395180941,0.05487336590886116,0.039720188826322556,-0.011262711137533188,0.0008472741465084255,-0.01160978339612484,0.005059645511209965,-0.004750395193696022,-0.04167627543210983,-0.0008279756875708699,0.021054690703749657,0.014717405661940575,-0.022191377356648445,0.0271577388048172,0.02615654096007347,0.0414639376103878,0.0229560025036335,0.0014021011302247643,-0.03378203511238098,0.030723053961992264,-0.002985131461173296,-0.017869940027594566,-0.07589748501777649,0.0262871403247118,-0.08193685859441757,0.09081435948610306,0.009266338311135769,-0.03682748228311539,-0.04753291234374046,-0.04936807230114937,0.0068266382440924644,-0.04167993739247322,0.026887904852628708,0.04545489326119423,0.00777058070525527,0.010625428520143032,0.027846701443195343,0.04067501053214073,0.031020788475871086,0.00191208953037858,-0.02516385167837143,0.038957349956035614,0.013802717439830303,-0.060176651924848557,0.05067037045955658,-0.031296782195568085,-0.028936995193362236,-0.02869527041912079,-0.013760651461780071,0.023264065384864807,0.008091040886938572,0.024366477504372597,-0.026744866743683815,0.035317204892635345,0.03875032067298889,-0.01548502966761589,-0.006709231063723564,-0.03266807273030281,-0.014110293239355087,-0.013175982981920242,-0.07017245888710022,-0.04817580804228783,-0.0050667026080191135,-0.014500805176794529,0.005039956420660019,0.04392849653959274,0.029520023614168167,-0.004854374565184116,-0.05778663605451584,0.04369942098855972,-0.007318165153264999,0.050657544285058975,-0.05044654756784439,0.04723528027534485,-0.08124344795942307,-0.014322780072689056,0.0286607313901186,0.005274638999253511,-0.030637158080935478,-0.01936010643839836,0.06299084424972534,0.007341251242905855,-0.032276421785354614,-0.01820620335638523,0.07116160541772842,0.03091709315776825,0.0587216317653656,-0.08921289443969727,-0.0017086805310100317,-0.04090804606676102,0.020118454471230507,-0.05133436620235443,0.06184874102473259,0.009061221033334732,-0.009124592877924442,0.05148196220397949,0.037754133343696594,-0.03814689442515373,-0.005937157664448023,0.07911328971385956,0.0215118620544672,0.000277002778602764,0.01859981007874012,0.029388444498181343,-0.03333548828959465,0.06350643932819366,0.0777888372540474,-0.013081975281238556,0.018078124150633812,-0.0019462256459519267,0.003840362187474966,-0.02182316780090332,0.02513975277543068,-0.031227974221110344,0.050374142825603485,-0.03039444237947464,-0.017723657190799713,-0.028827613219618797,0.008482059463858604,0.02528759278357029,0.05418670177459717,-0.08787784725427628,0.012581875547766685,0.05487050116062164,0.04392692446708679,0.0780198723077774,0.007975700311362743,-0.024934012442827225,0.01797669194638729,-0.011259771883487701,0.0562102273106575,-0.014249076135456562,-0.01563218981027603,-0.029628509655594826,0.015589935705065727,-0.013102361001074314,-0.06644643098115921,0.030136534944176674,0.034903574734926224,-0.022931260988116264,-0.00911921076476574,0.053806617856025696,0.03516226261854172,0.012353545986115932,-0.032063696533441544,-0.012594151310622692,0.016558028757572174,-0.008306781761348248,-0.0444418303668499,0.018274201080203056,0.042238567024469376,-0.0022661013063043356,0.052311819046735764,-0.023969098925590515,0.02792341634631157,0.05825583636760712,-0.028173226863145828,-0.03196678310632706,-0.014907767064869404,-0.047747042030096054,-0.03528458625078201,0.011290251277387142,0.08496171236038208,0.03701125085353851,-0.07037946581840515,-0.013172805309295654,-0.0017994880909100175,-0.061056897044181824,-0.012874980457127094,-0.0634208545088768,0.010382342152297497,0.06331678479909897,0.017904235050082207,-0.03315344452857971,0.09432696551084518,0.038361601531505585,-0.016214735805988312,-0.011640607379376888,0.054331474006175995,0.030278056859970093,0.010948446579277515,0.04872193560004234,0.012221279554069042,-0.022715840488672256,0.008476420305669308,0.013718311674892902,-0.004271606914699078,0.03317416459321976,-0.0465148463845253,-0.026168491691350937,0.0415073037147522,-0.09445855766534805,-0.032730475068092346,0.007612457498908043,-0.021237660199403763,0.012384110130369663,-0.02669333480298519,0.001762370695360005,-0.06026371195912361,0.004451175685971975,0.0000853040546644479,-0.04380283132195473,-0.006674551870673895,0.056764014065265656,0.04687592014670372,0.07298315316438675,0.032858628779649734,-0.009881941601634026,-0.020626571029424667,0.063612200319767,0.0003100644098594785,0.0354313999414444,-0.052109770476818085,-0.05199488252401352,0.011362590827047825,-0.03313543647527695,0.01345441211014986,-0.052641041576862335,-0.02833438664674759,0.02727176621556282,0.008638340048491955,0.038620058447122574,-0.019367460161447525,0.01094534620642662,-0.008026698604226112,-0.02697145752608776,0.04620160907506943,-0.038688648492097855,-0.06028097867965698,-0.006701212376356125,-0.020500056445598602,0.029527034610509872,-0.002497931942343712,0.04235659912228584,0.02214791812002659,-0.00958323571830988,0.020638439804315567,0.03334932029247284,0.030800029635429382,-0.05395785719156265,-0.020572783425450325,-0.0027451668865978718,0.08261744678020477,-0.012669408693909645,0.03941871225833893,0.05037418007850647,0.008708504028618336,0.024444766342639923,0.05359777808189392,0.04967755451798439,-0.006690254434943199,0.054192207753658295,0.002794383792206645,0.0518764890730381,0.03510033339262009,-0.042063646018505096,0.05872688814997673,0.042226649820804596,-0.03328878805041313,0.003057826077565551,0.02206522971391678,0.056202083826065063,0.02575724571943283,0.06732319295406342,0.023184392601251602,-0.04687640815973282,-0.009237771853804588,0.018444940447807312,-0.02470315434038639,0.023500023409724236,-0.012948785908520222,0.0121562909334898,0.009771942161023617,-0.008597797714173794,0.027152080088853836,0.004550943151116371,0.003965315409004688,-0.0459132045507431,-0.013700715266168118,-0.034691840410232544,0.007409397978335619,-0.004054258577525616,0.03954300284385681,0.09232699126005173,-0.005360966082662344,-0.004589869175106287,0.0013663143618032336,0.019081586971879005,-0.004224511329084635,0.02824847586452961,0.037768471986055374,-0.016180826351046562,0.0013285600580275059,0.07455705851316452,0.05817313492298126,-0.025315038859844208,-0.005615544971078634,0.03374622389674187,0.013731764629483223,0.04224471375346184,-0.011605264618992805,0.012976167723536491,0.008840067312121391,0.04672926664352417,0.022321311756968498,0.08181308209896088,-0.0033300945069640875,0.04877574369311333,0.0025040502659976482,0.013198777101933956,-0.0008461936376988888,0.005125132855027914,-0.015918904915452003,0.0007726600742898881,0.014875519089400768,-0.04065370559692383,0.015370408073067665,-0.028549695387482643,0.06790091097354889,-0.023145068436861038,0.05706845968961716,-0.022373851388692856,-0.0044733500108122826,-0.026439279317855835,0.018505515530705452,0.0455285981297493,0.007915915921330452,-0.021270474418997765,-0.007740234024822712,0.03291453793644905,-0.002993929199874401,0.0402827188372612,-0.03089079074561596,-0.034658282995224,-0.04713458567857742,-0.0625949576497078,-0.05143020302057266,0.07019692659378052,0.07076140493154526,0.06843899935483932,0.04055158048868179,-0.014636358246207237,0.011421999894082546,0.009524264372885227,-0.03937143087387085,0.0100172134116292,0.08020838350057602,0.004542699083685875,-0.026119010522961617,0.001889740931801498,-0.0016480565536767244,0.026814714074134827,-0.02095172367990017,0.03833954408764839,0.024848423898220062,-0.016583826392889023,-0.05872146040201187,0.005781039595603943,0.03448659926652908,-0.02001388557255268,0.021405477076768875,-0.019571108743548393,-0.04900934174656868,-0.002816398162394762,-0.019291771575808525,0.056808579713106155,0.015000497922301292,0.032861534506082535,0.01675540767610073,-0.04175072908401489,-0.03666630759835243,-0.022407185286283493,-0.0021551100071519613,0.04421055316925049,-0.0065780943259596825,0.006225072778761387,0.039903152734041214,-0.01045978907495737,0.007545257918536663,0.04578715190291405,0.021529430523514748,0.02585829608142376,-0.0010210119653493166,0.015167196281254292,0.016976403072476387,-0.04533934220671654,0.012123456224799156,0.05591912567615509,0.016173219308257103,0.043596070259809494,-0.01968252658843994,-0.03038005530834198,-0.0028849255759269,0.002302252920344472,0.07568702846765518,-0.028229793533682823,0.02012142725288868,0.05052785575389862,-0.037542395293712616,-0.006731387227773666,-0.015089325606822968,0.015740925446152687,0.05905389040708542,0.03532988205552101,-0.006620704662054777,0.05495838820934296,0.013960371725261211,-0.012122978456318378,-0.006155863404273987,0.009561575949192047,-0.04052188992500305,-0.006379234604537487,0.0458257682621479,0.007787077687680721,-0.006416959222406149,0.05877729505300522,-0.037075623869895935,-0.005716141313314438,0.05111769959330559,-0.03282969072461128,-0.0020122306887060404,-0.024905988946557045,0.04618275910615921,0.024551529437303543,-0.030810946598649025,-0.008336563594639301,-0.03048785775899887,0.025576701387763023,0.023060021921992302,0.030393460765480995,-0.0657542422413826,0.0466470792889595,-0.006553771905601025,0.010411647148430347,0.01614922285079956,0.026015935465693474,-0.07494091242551804,0.08054475486278534,0.030598822981119156,-0.026263771578669548,0.052331432700157166,0.01653592474758625,0.055246517062187195,-0.08372564613819122,-0.008137764409184456,0.07408022880554199,-0.04148007556796074,-0.06684421002864838,-0.02992231585085392,0.04078402370214462,0.03043455258011818,-0.011829226277768612,0.0048682051710784435,-0.0011255857534706593,0.03548489511013031,0.02255653217434883,0.015417443588376045,0.035443421453237534,-0.012896334752440453,0.05254054814577103,-0.008923349902033806,0.08872804790735245,0.002830939367413521,0.0687464103102684,-0.01554964017122984,-0.018680982291698456,-0.032735854387283325,0.05624057725071907,0.01639528013765812,0.006231635343283415,0.059968434274196625,0.04130224511027336,0.00019949526176787913,-0.06897611171007156,0.008417494595050812,0.015064110979437828,-0.002972159069031477,0.0813087597489357,-0.045556917786598206,0.015698404982686043,-0.04305870085954666,0.0015392436180263758,0.03239395096898079,-0.06944990903139114,-0.03446398675441742,-0.022276150062680244,-0.07820147275924683,0.03311141952872276,0.0639680027961731,0.012599756941199303,0.04004353657364845,0.010884756222367287,-0.008685486391186714,0.05005820468068123,0.018982838839292526,0.019963864237070084,-0.022997843101620674,-0.027137942612171173,0.03348623588681221,-0.015667947009205818,-0.07033530622720718,-0.02860255539417267,-0.015248630195856094,0.06187319755554199,-0.05009640008211136,0.05771579593420029,-0.025688936933875084,-0.03779870271682739,0.05897587910294533,0.018269890919327736,-0.04395119845867157,0.037374816834926605,-0.008558118715882301,0.020934807136654854,-0.01583409681916237,-0.008759705349802971,-0.011269783601164818,0.032622192054986954,0.023509260267019272,0.015077547170221806,-0.058009784668684006,-0.06495149433612823,0.005458150990307331,0.045645345002412796,0.003925457131117582,-0.03412659466266632,-0.05875515937805176,-0.03796980530023575,0.06532535701990128,-0.02001841552555561,0.010429466143250465,-0.013601417653262615,0.017618143931031227,0.021760493516921997,0.012890173122286797,0.03762277588248253,0.0353236123919487,0.007124354597181082,0.05448286607861519,0.0118073970079422,0.04633975774049759,0.010608602315187454,-0.05275343358516693,0.02074325457215309,0.00025271016056649387,0.035198554396629333,-0.011782841756939888,-0.02807057462632656,-0.05504593253135681,-0.012542731128633022,0.05797233060002327,0.012849177233874798,0.024084478616714478,0.02297053672373295,-0.04041999205946922,-0.024795357137918472,0.0013175979256629944,-0.009064930491149426,0.03355897217988968,-0.005558469332754612,0.030314097180962563,0.056232672184705734,0.038409654051065445,-0.059054795652627945,0.047689344733953476,-0.03219820559024811,0.01952620968222618,0.0023028627038002014,-0.01445227675139904,-0.004477429669350386,-0.026698779314756393,-0.03576795011758804,-0.01774219051003456,-0.011789651587605476,0.0037098941393196583,0.01515277847647667,0.03192196786403656,-0.02667768858373165,0.04943666234612465,0.03861561417579651,0.0035285211633890867,0.013201934285461903,-0.017449799925088882,-0.0055329506285488605,0.0849013403058052,0.029967909678816795,-0.022249355912208557,-0.046373430639505386,0.010248998180031776,-0.032537128776311874,0.07171055674552917,0.0665639266371727,0.0016774173127487302,0.06783674657344818,0.036775462329387665,-0.0031483417842537165,-0.021134836599230766,0.024739282205700874,-0.0062652770429849625,-0.00024170373217202723,0.03144077956676483,0.022992193698883057,-0.03695701062679291,-0.0031252633780241013,-0.021205300465226173,0.02205462008714676,0.006611429154872894,-0.030189359560608864,-0.011709177866578102,0.021645864471793175,-0.014333924278616905,0.01947317272424698,0.01766790822148323,0.034286536276340485,-0.002705714665353298,-0.02116578444838524,-0.03438748046755791,-0.018777012825012207,-0.013384804129600525,0.006776162423193455,-0.017842592671513557,0.021754534915089607,-0.0301818884909153,-0.006502389907836914,0.07150059938430786,-0.01765735074877739,0.040555622428655624,-0.046760089695453644,-0.0231306329369545,-0.043058570474386215,-0.012513512745499611,-0.024411998689174652,-0.0011510596377775073,0.01033930666744709,-0.06895866245031357,0.02363220788538456,-0.02581230364739895,0.01023896038532257,-0.00041915944893844426,-0.0013563964748755097,0.017025183886289597,-0.005812162067741156,0.07176848500967026,0.048618119210004807,-0.022023005411028862,-0.06552817672491074,0.05039234459400177,-0.017138948664069176,-0.010156976990401745,-0.013793242163956165,0.02669839933514595,-0.004587636794894934,0.05290798097848892,-0.0016770140500739217,0.023066449910402298,-0.07754140347242355,0.06009036302566528,0.04578355699777603,-0.08536659181118011,0.005960056092590094,0.07068033516407013,-0.029482390731573105,-0.04753968119621277,0.041072145104408264,-0.021607698872685432,0.04542360082268715,-0.01838790997862816,-0.019746262580156326,0.06310255825519562,0.027114788070321083,0.04362964257597923,-0.025914350524544716,-0.03495868667960167,0.03861508518457413,-0.04374004527926445,0.0006801175186410546,0.043628375977277756,-0.034241221845149994,-0.02971305511891842,-0.003896103473380208,0.06472371518611908,0.02576572075486183,-0.05298199504613876,-0.08098822832107544,-0.008423569612205029,0.055681247264146805,-0.0195492971688509,0.03796032443642616,0.01876286417245865,0.04743679240345955,-0.010578070767223835,-0.023811647668480873,-0.056725285947322845,-0.027861593291163445,0.023118047043681145,-0.046094734221696854,0.04653065651655197,-0.014880554750561714,0.009550907649099827,0.023107867687940598,-0.009187938645482063,-0.003008841769769788,-0.03757225349545479,-0.0894850417971611,-0.004091174341738224,-0.06522700935602188,-0.05942344292998314,0.0018809225875884295,0.06983578950166702,-0.06639090180397034,0.022996099665760994,-0.003212087554857135,0.06850767880678177,-0.03268067166209221,0.00832511205226183,0.011833696626126766,0.06512624770402908,0.030420513823628426,0.005301550962030888,0.07328543066978455,-0.017428800463676453,0.020390983670949936,-0.0031327414326369762,-0.0022448573727160692,0.025638261809945107,0.047607097774744034,0.0555255264043808,-0.02834710292518139,0.026119794696569443,0.012752947397530079,0.0433051697909832,-0.012020743452012539,0.0344989076256752,-0.04479438066482544,-0.06652285903692245,-0.0010775827104225755,-0.029247945174574852,-0.016076842322945595,0.03399674594402313,0.01730700582265854,-0.06956850737333298,0.02709388919174671,0.03476982191205025,0.006192387547343969,0.013800781220197678,0.04041478782892227,-0.026151064783334732,0.036940351128578186,-0.006172725465148687,-0.024365169927477837,-0.05427464097738266,0.00568950641900301,-0.026000820100307465,0.044990379363298416,0.026331163942813873,-0.06646215915679932,-0.0758289098739624,0.0213860422372818,0.0044915578328073025,0.046994637697935104,0.01800483651459217,0.002640161430463195,0.032451946288347244,-0.007194656413048506,0.01353845838457346,0.027654578909277916,-0.013032618910074234,0.021006068214774132,0.05977429822087288,0.01820323057472706,-0.004958680365234613,-0.03408193215727806,-0.05465604364871979,0.0019394848495721817,0.06846875697374344],[-0.01504183653742075,0.005992009770125151,-0.0007200366817414761,0.0036344241816550493,0.026917539536952972,-0.010278305970132351,0.02075827121734619,0.013420116156339645,0.005076448433101177,-0.02067183330655098,0.007871091365814209,0.012462057173252106,-0.05812659487128258,-0.03377625346183777,0.0016866237856447697,-0.005750603042542934,0.01966685615479946,0.06270764023065567,-0.04196548089385033,0.012100981548428535,-0.02635001577436924,0.020368119701743126,-0.011421126313507557,-0.054673947393894196,-0.02263878658413887,0.04082469269633293,0.02397945150732994,0.026903152465820312,0.012978808954358101,0.01409397553652525,-0.028665538877248764,0.015300274826586246,-0.028159135952591896,-0.01612541452050209,-0.019153594970703125,-0.007024221587926149,0.025221791118383408,-0.020579012110829353,0.0027173582930117846,0.001386010437272489,-0.0009713402832858264,0.02254120446741581,0.03042164258658886,-0.04777435213327408,-0.02608172595500946,-0.0049033272080123425,0.06723945587873459,0.030400319024920464,-0.02460344322025776,-0.017924228683114052,-0.03319055959582329,-0.025668054819107056,0.01460078451782465,0.031718697398900986,0.011856874451041222,-0.027916885912418365,0.006197690963745117,0.04493843391537666,0.0614180862903595,0.01631389558315277,0.035364143550395966,-0.029596716165542603,0.021299919113516808,0.03130366653203964,0.012498957104980946,-0.028044717386364937,-0.056130245327949524,0.05727648735046387,-0.019558902829885483,-0.00021009378542657942,0.01872674934566021,0.01607227511703968,-0.06926272809505463,0.06620009988546371,0.03731246292591095,-0.027121391147375107,-0.039419397711753845,0.020630354061722755,0.0631541758775711,0.019481703639030457,0.0010393880074843764,-0.023833831772208214,0.026741961017251015,0.04959904029965401,-0.01844700798392296,0.022738711908459663,0.02576494589447975,0.065508633852005,0.010618118569254875,0.053769152611494064,0.04537735506892204,0.009455296210944653,0.023842310532927513,0.03278233855962753,0.003319143084809184,-0.0350307896733284,0.0637560561299324,0.05483078584074974,-0.0190897099673748,0.04216020926833153,0.06428542733192444,-0.045883577316999435,-0.024410543963313103,0.009534715674817562,-0.04012339189648628,-0.05362650007009506,0.012035968713462353,0.018579300493001938,-0.028194570913910866,0.02845466509461403,0.03187451884150505,-0.02858327142894268,0.024875979870557785,-0.03544902056455612,-0.0028302958235144615,-0.05365762114524841,-0.008366293273866177,0.03805891424417496,-0.011101121082901955,0.03690041974186897,-0.015497434884309769,-0.002404107479378581,0.03154769539833069,-0.03520995005965233,0.0012662000954151154,0.04369619861245155,-0.024008655920624733,0.032933831214904785,0.040336161851882935,0.004585024435073137,-0.029683386906981468,-0.04684293270111084,0.05807095393538475,0.007851357571780682,-0.06584432721138,0.0746583640575409,0.025515932589769363,-0.02060389332473278,0.04516095295548439,0.011620636098086834,-0.04337459057569504,0.0513944998383522,0.004600937943905592,-0.017686104401946068,0.035554785281419754,0.021752692759037018,0.019919482991099358,0.02901804819703102,-0.025831710547208786,0.06142937019467354,0.009638401679694653,0.024048371240496635,0.034171637147665024,-0.006321548484265804,0.0021237069740891457,-0.01217904407531023,0.037258900701999664,-0.0003401761641725898,0.04005094990134239,-0.021587155759334564,-0.031194021925330162,-0.04490647092461586,-0.02993633784353733,-0.01911567524075508,-0.0674339309334755,-0.030551718547940254,0.0288457740098238,-0.009855769574642181,-0.026990830898284912,0.06120767816901207,-0.015310447663068771,0.055792439728975296,0.057349782437086105,0.04337798431515694,-0.007981186732649803,-0.010899024084210396,-0.01527640875428915,0.024423014372587204,-0.016229547560214996,-0.003205657936632633,0.05354562774300575,-0.0427917018532753,-0.006370448507368565,0.017758237197995186,-0.06160839647054672,-0.01093655452132225,0.00865741353482008,0.0041451361030340195,-0.06633123010396957,-0.01965881884098053,0.005944156553596258,0.008067910559475422,-0.050066541880369186,0.01704074628651142,-0.06688553094863892,0.05601885914802551,-0.010246717371046543,0.030399687588214874,0.006902401801198721,-0.006642837077379227,-0.018445532768964767,-0.045261334627866745,0.02826620824635029,0.04553109034895897,0.033697888255119324,0.01952061802148819,-0.02991211786866188,-0.047543298453092575,-0.019819557666778564,-0.023934518918395042,-0.007383728865534067,-0.02350432612001896,0.017154958099126816,0.04002280905842781,-0.021866649389266968,-0.01545389462262392,-0.021222520619630814,-0.06213527172803879,0.017073914408683777,-0.02249954082071781,0.02357056364417076,0.04447483271360397,0.007740878965705633,-0.01650935411453247,-0.017569655552506447,-0.012486581690609455,-0.027769194915890694,0.04153652861714363,0.013492820784449577,-0.017744675278663635,-0.030825458467006683,-0.01598253846168518,0.008528490550816059,-0.0228970255702734,0.033116891980171204,0.00853029265999794,0.017801469191908836,0.01646803691983223,0.019211430102586746,0.016686681658029556,-0.004742043558508158,0.06802225112915039,0.03581448271870613,-0.0007837907178327441,-0.04259137064218521,0.04950099438428879,-0.07481653988361359,-0.030154624953866005,-0.04872620478272438,-0.014774573966860771,-0.05736079066991806,0.01045218575745821,0.01983029581606388,0.0862920731306076,-0.03592323511838913,-0.02295438013970852,0.05651860684156418,-0.016534345224499702,-0.03769912198185921,0.0336238332092762,-0.008646026253700256,0.022167246788740158,-0.03998980671167374,-0.046258457005023956,-0.030586639419198036,-0.027972672134637833,-0.01224709115922451,-0.027595601975917816,-0.02974892035126686,-0.0016722087748348713,-0.04941312223672867,0.04682600498199463,-0.021140573546290398,-0.03566854074597359,-0.010483328253030777,-0.0421784408390522,0.06581191718578339,-0.00597476726397872,-0.0001995503407670185,-0.06678135693073273,0.006162717472761869,0.024912642315030098,-0.056579798460006714,-0.025443999096751213,-0.03817266970872879,-0.03810391202569008,-0.05731812119483948,0.04773956537246704,0.02122027985751629,-0.05729401856660843,-0.033200789242982864,0.023966679349541664,-0.030948150902986526,-0.02571834623813629,-0.026963412761688232,0.057197391986846924,0.08846050500869751,0.05909955874085426,0.04298422485589981,-0.04015371575951576,-0.03604188561439514,-0.033519767224788666,0.039278365671634674,-0.07372839003801346,0.08549731224775314,0.012318817898631096,0.026208600029349327,0.021572856232523918,-0.0017593756783753633,-0.0037780706770718098,-0.0017620754661038518,0.038146406412124634,0.059102464467287064,0.0009986666264012456,-0.017443547025322914,0.039516400545835495,-0.05949090048670769,0.013942466117441654,-0.01540470216423273,-0.013586378656327724,-0.04611704871058464,-0.004930251277983189,-0.04132279008626938,0.0010927128605544567,-0.000911896291654557,0.03937531262636185,-0.05211484432220459,-0.011954608373343945,-0.026822645217180252,-0.002393490867689252,-0.03924785181879997,-0.020238013938069344,0.04923732206225395,-0.06727675348520279,0.0018678567139431834,0.03762884438037872,-0.012464920058846474,0.021632425487041473,0.04493480175733566,0.007894394919276237,-0.003630994353443384,-0.017232296988368034,-0.04170381650328636,0.008936376310884953,-0.04797881841659546,0.032158225774765015,0.03238970413804054,-0.004158332943916321,-0.02777934819459915,-0.008899855427443981,0.0029913363978266716,0.009062884375452995,0.03885845094919205,0.06850972771644592,0.062283772975206375,-0.049073800444602966,-0.039208684116601944,-0.026164809241890907,-0.026012670248746872,-0.015789438039064407,-0.06745695322751999,-0.0029480569064617157,-0.0471346490085125,-0.010260223411023617,0.015935327857732773,0.014600185677409172,0.0041300770826637745,0.03262742981314659,-0.01076345331966877,0.02321557141840458,-0.017282340675592422,-0.02896149270236492,-0.020933926105499268,0.022430432960391045,-0.06847023963928223,0.018783755600452423,-0.0009385847370140254,-0.0377313457429409,0.009859793819487095,0.011649911291897297,0.0022804802283644676,0.006810533348470926,-0.018542516976594925,-0.07345883548259735,-0.005051878280937672,0.0194836538285017,-0.012168625369668007,0.024565622210502625,0.004879732150584459,0.031226538121700287,0.008034635335206985,0.011301321908831596,-0.017967920750379562,-0.015421534888446331,-0.05824224650859833,0.09698784351348877,-0.03198043256998062,-0.0052110664546489716,-0.031345922499895096,-0.009174318052828312,0.01093210093677044,-0.014160810969769955,0.020230256021022797,0.005881525110453367,0.002081088488921523,0.037903957068920135,-0.0328998938202858,-0.004175877198576927,0.019717108458280563,0.0004391960974317044,0.03834423050284386,-0.015181036666035652,0.011738290078938007,-0.025695525109767914,0.01030666008591652,0.0010939984349533916,-0.02261437103152275,0.027437856420874596,0.05380738154053688,0.005731859710067511,0.009116346947848797,0.0380416065454483,0.06039409711956978,-0.002465951954945922,-0.0025307824835181236,0.0178880225867033,-0.024596501141786575,-0.04989005997776985,-0.05253163352608681,0.0013650055043399334,0.026299942284822464,-0.04769717529416084,0.028814272955060005,0.0029260243754833937,0.045331452041864395,-0.00013084143574815243,0.013768638484179974,-0.038338180631399155,-0.02249148301780224,0.013424946926534176,0.037604350596666336,0.016397424042224884,0.0034121237695217133,0.09255708009004593,-0.032623935490846634,0.05587603896856308,0.00023032505123410374,-0.05473540350794792,0.008843566291034222,0.06662455201148987,-0.05462147295475006,0.029338756576180458,0.0012490733060985804,0.0016650831094011664,-0.026555180549621582,-0.012659936212003231,-0.00018031541549135,0.031684815883636475,0.0021673953160643578,-0.013587367720901966,-0.010114558972418308,-0.06188159063458443,-0.02757948637008667,-0.0753299668431282,0.013328559696674347,-0.06981948018074036,-0.028915956616401672,-0.0018742959946393967,-0.03562701866030693,0.010153147391974926,-0.03914880007505417,-0.012338931672275066,0.05330207198858261,-0.051317159086465836,0.021414903923869133,0.04131317138671875,0.0032113236375153065,-0.08325238525867462,0.0063811782747507095,-0.030598366633057594,0.036090169101953506,0.003909552935510874,-0.044278766959905624,0.03442597761750221,0.018497729673981667,-0.04233933612704277,0.019089331850409508,0.028173236176371574,-0.04836330562829971,-0.05256350710988045,-0.03938942775130272,-0.023737000301480293,0.013643112033605576,0.04861672222614288,-0.03726242110133171,0.024581240490078926,0.018449777737259865,-0.03167940303683281,-0.0339687205851078,-0.038956500589847565,0.004262130241841078,0.03797436133027077,-0.029876912012696266,-0.03083239495754242,0.0013934187591075897,-0.013282849453389645,0.003116049338132143,-0.0019453748827800155,0.04593559354543686,-0.03767399489879608,0.07385366410017014,-0.06023810803890228,-0.01250495482236147,-0.025267332792282104,0.015731628984212875,-0.032990653067827225,0.016983067616820335,-0.0418173186480999,-0.006983183789998293,0.028559163212776184,-0.027615441009402275,-0.013805265538394451,0.05540661886334419,-0.006385688669979572,-0.003669424680992961,-0.03902958333492279,-0.024396445602178574,0.011781111359596252,-0.03151566535234451,0.026415975764393806,0.026523126289248466,-0.005378019064664841,-0.038707926869392395,-0.04098539054393768,0.04724721238017082,0.01941889524459839,0.004991068504750729,-0.005031643435359001,-0.007613184861838818,-0.07560011744499207,-0.027412714436650276,-0.025406604632735252,-0.036755021661520004,0.014554505236446857,-0.04833023250102997,-0.04248196259140968,0.04232068732380867,-0.05802145600318909,0.002457174938172102,-0.013921136036515236,-0.04690786451101303,-0.06475910544395447,-0.04480833187699318,-0.00506921112537384,0.07050638645887375,0.004882150795310736,-0.020096082240343094,0.010865697637200356,0.05087457597255707,-0.025608161464333534,0.01545718964189291,-0.07572300732135773,0.014836528338491917,0.003492191433906555,0.01618078164756298,-0.010585052892565727,-0.01069131400436163,0.026823025196790695,-0.022531218826770782,0.0229292344301939,-0.054271239787340164,0.05267507582902908,-0.019840404391288757,0.03825720399618149,-0.0669793114066124,-0.08844774216413498,0.02598699741065502,-0.021365612745285034,0.02550741657614708,-0.08057991415262222,0.07595625519752502,0.05703309178352356,0.041228536516427994,0.030695181339979172,0.012014015577733517,0.009334775619208813,0.03931081295013428,0.04106404259800911,0.0008234701817855239,0.01644238457083702,0.04757462814450264,-0.008416539058089256,-0.009586543776094913,-0.025816896930336952,-0.02219258062541485,0.03612557426095009,-0.01740621216595173,-0.05756906047463417,0.02712831273674965,-0.016505999490618706,-0.002125740749761462,-0.011928394436836243,0.04016685485839844,-0.00703114690259099,-0.016574449837207794,-0.0044747269712388515,0.04948142543435097,0.034895267337560654,-0.03857387974858284,-0.016744468361139297,-0.0217887032777071,0.00034196837805211544,-0.07871168851852417,-0.038556188344955444,-0.058604896068573,0.010429575107991695,-0.012899989262223244,-0.04908178746700287,-0.021221410483121872,-0.07015528529882431,-0.008808333426713943,-0.0013098239433020353,-0.022828489542007446,0.06321355700492859,0.0059072840958833694,0.007862355560064316,0.024497410282492638,-0.01247571874409914,-0.03704546391963959,0.027535278350114822,-0.09232090413570404,-0.014427607879042625,0.010681712068617344,-0.03865246847271919,-0.005425872281193733,0.026985997334122658,0.006066023372113705,0.027408495545387268,0.02832356095314026,0.005932120606303215,-0.04215557128190994,-0.018042225390672684,-0.07006237655878067,0.031135883182287216,-0.0127665214240551,0.0024610075633972883,-0.043552570044994354,-0.0006488985382020473,0.0015355246141552925,-0.005902361590415239,0.00024184506037272513,-0.05510673671960831,0.042676541954278946,-0.0016146471025422215,-0.0604151152074337,0.05218769982457161,-0.06484690308570862,0.00518576055765152,0.013386951759457588,0.015709731727838516,0.027754146605730057,0.013232533819973469,0.0020941428374499083,0.022024119272828102,-0.01709020510315895,0.015030447393655777,0.019521912559866905,0.027870194986462593,-0.0038699323777109385,-0.02759486436843872,-0.004075756296515465,-0.04063784331083298,-0.05458271503448486,-0.026580210775136948,-0.01965559832751751,0.01629522815346718,-0.01229605171829462,-0.033558834344148636,0.011101956479251385,-0.03501482307910919,-0.01610505022108555,0.019824782386422157,-0.03241150081157684,-0.023915546014904976,-0.00020340594346635044,0.012341356836259365,-0.017839547246694565,-0.00690943980589509,-0.002208477584645152,0.0317862406373024,-0.04785747453570366,0.017978008836507797,-0.026702918112277985,-0.02848915383219719,-0.039313480257987976,-0.026196720078587532,0.03654513880610466,0.052605416625738144,0.05151781067252159,-0.039903126657009125,-0.003413678612560034,-0.039049290120601654,0.006332050543278456,0.057950474321842194,0.0632786676287651,-0.023062610998749733,0.02563372254371643,0.01965557411313057,-0.03816961497068405,0.01576070301234722,0.03197791427373886,0.00794237945228815,0.03880530223250389,-0.0288169477134943,0.024593448266386986,-0.013423808850347996,-0.005855618044734001,-0.05845549702644348,-0.043507758527994156,0.0651596263051033,-0.0013872191775590181,-0.05411896854639053,-0.011178238317370415,0.035677891224622726,0.025720397010445595,-0.022057175636291504,0.03153610974550247,-0.005288898479193449,-0.01979488506913185,0.024223370477557182,0.0625375509262085,-0.011695384979248047,0.04193934053182602,-0.018144946545362473,0.03364245221018791,0.015368841588497162,-0.011653064750134945,0.0188135989010334,-0.03867940232157707,-0.016103804111480713,-0.06279269605875015,-0.011812360025942326,-0.019421974197030067,0.019424261525273323,-0.006605516653507948,-0.05636284127831459,-0.018527839332818985,0.04245710000395775,-0.02808418869972229,-0.010272353887557983,0.04004199430346489,-0.017277738079428673,0.05859724059700966,-0.03294620290398598,-0.06456771492958069,0.03178111091256142,0.003918130416423082,0.03249732404947281,-0.06928059458732605,0.004915931727737188,-0.009946051053702831,-0.04397709667682648,-0.04669547826051712,0.06980858743190765,-0.028010930866003036,0.038272153586149216,0.050455596297979355,-0.02518312819302082,0.009288261644542217,-0.0379968136548996,-0.027479398995637894,-0.02209964580833912,-0.03139367327094078,0.02507968060672283,-0.011717107146978378,0.0032814587466418743,0.01926768198609352,0.042252782732248306,-0.04276350513100624,0.06030051410198212,0.034843795001506805,0.061759669333696365,-0.03843282163143158,0.08755534142255783],[-0.017550302669405937,0.02416755072772503,0.03004276193678379,-0.02186746709048748,0.02359192632138729,0.015358257107436657,-0.02895035222172737,-0.02510862797498703,-0.014993065036833286,0.02243155427277088,0.004599980544298887,-0.0022199538070708513,-0.01674322411417961,-0.06432664394378662,0.014326118864119053,0.01422592531889677,0.009860074147582054,-0.008741790428757668,0.021862922236323357,0.011034317314624786,-0.03122870996594429,-0.0656227171421051,0.05527835339307785,0.05105706304311752,0.06404614448547363,-0.011663108132779598,0.055932994931936264,-0.05435825139284134,